function [Y,Xf,Af] = myNeuralNetworkFunction(X,~,~)
%MYNEURALNETWORKFUNCTION neural network simulation function.
%
% Generated by Neural Network Toolbox function genFunction, 20-Mar-2017 15:29:11.
%
% [Y] = myNeuralNetworkFunction(X,~,~) takes these arguments:
%
%   X = 1xTS cell, 1 inputs over TS timesteps
%   Each X{1,ts} = Qx300 matrix, input #1 at timestep ts.
%
% and returns:
%   Y = 1xTS cell of 1 outputs over TS timesteps.
%   Each Y{1,ts} = Qx100 matrix, output #1 at timestep ts.
%
% where Q is number of samples (or series) and TS is the number of timesteps.

%#ok<*RPMT0>

% ===== NEURAL NETWORK CONSTANTS =====

% Input 1
x1_step1.xoffset = [0;0;0;0;0;0;0;0;0;0;0;0;0;0;0;0;0;0;0;0;0;0;0;0;0;0;0;0;0;0;0;0;0;0;0;0;0;0;0;0;0;0;0;0;0;0;0;0;0;0;0;0;0;0;0;0;0;0;0;0;0;0;0;0;0;0;0;0;0;0;0;0;0;0;0;0;0;0;0;0;0;0;0;0;0;0;0;0;0;0;0;0;0;0;0;0;0;0;0;0;0;0;0;0;0;0;0;0;0;0;0;0;0;0;0;0;0;0;0;0;0;0;0;0;0;0;0;0;0;0;0;0;0;0;0;0;0;0;0;0;0;0;0;0;0;0;0;0;0;0;0;0;0;0;0;0;0;0;0;0;0;0;0;0;0;0;0;0;0;0;0;0;0;0;0;0;0;0;0;0;0;0;0;0;0;0;0;0;0;0;0;0;0;0;0;0;0;0;0;0;0;0;0;0;0;0;0;0;0;0;0;0;0;0;0;0;0;0;0;0;0;0;0;0;0;0;0;0;0;0;0;0;0;0;0;0;0;0;0;0;0;0;0;0;0;0;0;0;0;0;0;0;0;0;0;0;0;0;0;0;0;0;0;0;0;0;0;0;0;0;0;0;0;0;0;0;0;0;0;0;0;0;0;0;0;0;0;0;0;0;0;0;0;0;0;0;0;0;0;0];
x1_step1.gain = [2;2;2;2;2;2;2;2;2;2;2;2;2;2;2;2;2;2;2;2;2;2;2;2;2;2;2;2;2;2;2;2;2;2;2;2;2;2;2;2;2;2;2;2;2;2;2;2;2;2;2;2;2;2;2;2;2;2;2;2;2;2;2;2;2;2;2;2;2;2;2;2;2;2;2;2;2;2;2;2;2;2;2;2;2;2;2;2;2;2;2;2;2;2;2;2;2;2;2;2;2;2;2;2;2;2;2;2;2;2;2;2;2;2;2;2;2;2;2;2;2;2;2;2;2;2;2;2;2;2;2;2;2;2;2;2;2;2;2;2;2;2;2;2;2;2;2;2;2;2;2;2;2;2;2;2;2;2;2;2;2;2;2;2;2;2;2;2;2;2;2;2;2;2;2;2;2;2;2;2;2;2;2;2;2;2;2;2;2;2;2;2;2;2;2;2;2;2;2;2;2;2;2;2;2;2;2;2;2;2;2;2;2;2;2;2;2;2;2;2;2;2;2;2;2;2;2;2;2;2;2;2;2;2;2;2;2;2;2;2;2;2;2;2;2;2;2;2;2;2;2;2;2;2;2;2;2;2;2;2;2;2;2;2;2;2;2;2;2;2;2;2;2;2;2;2;2;2;2;2;2;2;2;2;2;2;2;2;2;2;2;2;2;2;2;2;2;2;2;2];
x1_step1.ymin = -1;

% Layer 1
b1 = [0.72394572448032601;-0.79383704814905043;-0.10696833602993913;-0.19503766724549906;-0.048359817997138496;0.34742821454129375;-0.52718944162756964;0.6941913875504524;0.53100388350620942;-0.92881908796561596];
IW1_1 = [-0.040525377555260735 -0.14187377925511938 0.13276042296753632 0.027402974242497671 0.10021262847526971 -0.085195541462262089 -0.039186761151043664 -0.092961054431679679 -0.031285314290926278 0.0022505660790177948 0.041918915222042032 0.058641701624236001 -0.042140655274991154 -0.070036003244374367 -0.074668552971435667 0.09314257861484776 -0.10970220178245063 -0.058227857572107626 0.1990084076587236 0.19241832239500553 -0.27516346211268983 -0.021643409953856108 0.00073873045335483278 0.028126835365527389 -0.032084733836594576 -0.067954049002402234 -0.11814982620401482 -0.026958564615485264 0.11892406975292734 0.02138267000717313 -0.0036363074317457139 0.041238700895843923 0.0035622864865815541 0.029816585246426247 0.0151197679110624 -0.071750098308726334 0.01526448920620023 0.016993409361922163 0.055812807740414465 0.047268703675493573 -0.023189379440068797 0.17389657987352816 0.088116014379096053 -0.16776134348733127 0.048579522671471163 0.00018438907981135899 -0.029089662585532097 0.26443078876288312 -0.13969183408774322 0.0045294530346720041 0.04284267799123765 0.068732895348256856 0.0054402245569141038 0.071493125081050102 -0.13697815469789126 -0.019426729189578024 -0.16135932186952112 0.14296918162112424 0.056288583583624645 -0.1989874470964178 -0.04065544511271444 0.14647787245823479 -0.083136841395760525 -0.040888825612416739 0.18483806894534641 0.058479327565133923 -0.0022911146857743647 0.01544009399421882 0.12610652018657226 -0.14162210958813945 0.21440990650579039 -0.01695698968658747 0.22498730299785216 0.04060792721150587 -0.1829046991824001 -0.018211701064740266 -0.12749323492933196 -0.013818980498466929 0.20970200070938116 0.17545782185333253 0.047004417217365937 -0.13222022104334158 0.045371104491315012 -0.010589800508827588 -0.12822623619513696 -0.05603335095332708 0.072652492531512486 -0.043513595531820604 0.05969210763927283 0.17321662889775707 0.13040176833753084 0.14833815117827343 0.042687731168175043 0.0082864355144213753 -0.016391380841462171 0.11097251703229942 -0.0052873447939824 -0.046843224491816673 -0.021228508814437011 -0.031414677711282903 0.0077842980788321008 -0.0065630905457923754 -0.010254086797348292 0.035497410016339603 -0.017770826012059662 0.0064399852080926391 0.046600956020925725 0.0016906210605233786 0.01930708545475221 -0.042713554115797886 0.0053114731985640581 0.066064948931346401 0.0071233222098034954 0.011389331225219686 0.055138539656264529 0.052319117019819006 0.012759784001206465 0.00010245349848445051 0.077253583501576212 -0.0085055343285951844 -0.045695004997875197 -0.041982387071588786 -0.032168869994912537 0.033567221674034226 -0.035610365190679158 -0.0053306834401274372 0.0020591348374026765 0.072575618822577626 0.00024631312356741125 -0.014113719251049192 0.029421997806933803 0.033539088451215698 -0.047672079849602714 -0.019844172744516515 -0.0073615047432243992 0.059281623116913401 -0.008261541190356974 0.012153366772785577 6.2277359631031023e-06 0.019122062873979148 -0.0057302418091369628 0.011097513038819062 0.031702213597576578 0.0062713643524103611 0.0095113299468610954 -0.073944520598045044 -0.10283104896370643 -0.046929670298214994 -0.11306347848902912 -0.0037048683088224434 0.023839042797684479 0.023012645490486264 0.0092815100681000479 0.002531956213602346 0.012293715799904667 0.0091985388360551635 0.026423664355948367 -0.0065284799975647619 0.053658869324680142 0.0072503332629034467 0.014016903987476407 -0.0016892712731250898 0.033949015992939813 0.023423635817480096 -0.06535070994639447 0.011710150563136609 0.041257037073139498 0.074155142461824988 -0.039292495503765935 0.0058892267932515695 -0.027074505693539159 0.0072631606908320785 -0.013591229787103004 -0.0053984897281807971 0.010145378971900111 0.072118673787449114 -0.028680434220816987 0.00083764191559850421 0.046940220807368024 -0.020298459494763922 0.011954409464290843 -0.050905063966411396 0.034962471880813098 -0.058234919166945009 0.10192328493553128 0.05211677447217436 0.037806731129111856 0.01172113783811172 -0.028971555979563246 0.048448011699208655 -0.016800552066452284 0.068480133675298885 0.01907673758595298 -0.031917800902915142 -0.12033588194900108 -0.0097720609350010982 0.043814813276873241 -0.033134100882702647 0.021033788742146831 -0.026820980476880495 -0.009930247909632945 -0.0084137339107183302 -0.03993429627278778 -0.013973432659281249 0.035084958761125107 -0.028632737516165262 -0.0079273838980225119 0.07030116836588636 0.01735418583020229 -0.13300990207043473 -0.047616581442442241 0.098271897071430581 -0.046595368643219753 0.027327207914993303 0.013878013013557441 -0.033143120959096051 0.018090965813064519 -0.067425425096201502 0.012514902718266874 0.0065390693437725423 -0.018629015132648703 -0.019213721801149167 0.010180270776939799 -0.055390579374329993 0.0096131338485597045 -0.06220271577175663 -0.01821740457111428 -0.0018338182068359729 0.016554728637336549 0.00070603378592600614 -0.051371410336189055 0.027237475972085104 -0.1969797204104892 -0.050448529119330829 0.11123838443360579 0.066118006301121732 -0.0098272222735052497 0.030076905480991064 0.020580454229283361 -0.036812387410820116 0.016791333339492526 0.092590609329665133 -0.018593032001872459 0.046590896620204228 0.010796610153236323 -0.064093365760187523 -0.016695009391056025 0.095727648313898059 -0.048570134861078793 -0.017620071228181509 0.0073032689445745314 -0.024942855976554459 -0.00021537443234115328 0.021471204687306254 0.026141408486939424 0.0085675708858911764 0.013627717472048885 -0.0028429678338500602 0.010701330466991926 -0.014323777298416799 0.0024728805178105412 0.016474848099565908 -0.052165101785182896 -0.01660461196174336 -0.061934140969145818 0.052676198978650134 0.0018707977993288596 -0.010256193759494523 -0.025562466387641036 0.0191080986727174 -0.040566334976923954 0.012962363004105582 -0.035157974664290187 -0.0064699951874779629 0.043711727537548137 0.060822017996718908 -0.041879631132088195 -0.0062535818514088846 -0.0097278233757488522 -0.0017039131615239136 -0.0058051640251707542 -0.0093488202209454571 -0.0081330394619835919 0.03682054458559042 -0.011610321221037501 0.068181807650026849 0.114901833391628 -0.00020430883611097239 -0.033829098149354184 -0.0091507475940365256 0.066731431332636884 -0.0041925266921726684 -0.019568651050819293 -0.075086096768238159 -0.057852728135779963 -0.007608845903897786 0.0082959562155438833 -0.038580654017875714 0.00024491897519764161 0.038156024210865121;0.15803837613657867 -0.068692470820944845 0.049381512047203882 -0.035785289254989347 -0.035323498798340007 0.083280610079255385 -0.023411169926728995 0.0051499801584904206 -0.11706295109002605 0.12732477877687468 0.050189181710674845 0.045656083096013239 -0.0072501575108994132 0.012383104413295081 -0.021921231873506516 0.066237552263671673 -0.017346949230516769 -0.14854273980838067 0.04814626707997794 -0.07420891444311449 0.059029693040247674 -0.032025346825577089 0.005303022247050683 0.017587886048118367 -0.015638067557770696 -0.051866312564555275 -0.014177126782608435 -0.014527330806415712 0.024548626284711612 -0.13114814783291645 -0.021134936470948405 -0.06828459851308244 0.00028820410711508267 0.14508808283530567 0.0025074057030753452 -0.046791908538344792 0.16269741718321046 -0.064744233519233252 -0.079734727076685316 0.058978884634576387 -0.074862913984934457 -0.013486691193431721 -0.08874110222960091 -0.1577683160859307 -0.035977056551603472 -0.093849161381398205 0.011004114973131248 0.19226640319208346 -0.031391343804949602 -0.032912656340054962 0.0012280786277169223 -0.12647748050908456 0.0033297200180363098 0.0066449230487272831 -0.12762850844419102 -0.0078739886107939937 -0.036619967872004333 -0.037346270397534326 0.017225648785631795 -0.085786111688809313 -0.033330940179005862 0.071014065686104341 0.11864997629639944 -0.00067942031718616624 0.065354103480269418 0.025754137598365659 0.018601414365954638 -0.014360741574643766 0.020938710549408802 -0.04799099332194548 0.031080600928588685 0.08424783629990118 -0.19819327383151678 0.081281948196518392 -0.11050196883516014 0.02850556150618741 -0.078909282687014221 -0.014166329698281577 0.087918671983436308 0.032851641066453455 -0.026393477665837127 -0.041604197318541987 0.02096748274106873 0.01685872189636313 0.025471073944734229 0.029436417716011649 0.022155783721306985 0.014027252660474408 -0.049973392061673436 0.064250122265301274 -0.056132618901240265 -0.028957527491469563 -0.018847357739825731 0.010483779115895965 0.0097037601903308523 -0.030351683959769209 0.051131808614085429 0.027091091889628015 0.01371872452071584 -0.019184532405774772 -0.00061398597673147093 0.0044505249796205088 -0.00019220976900895833 -0.017975844568828978 -0.026664988586561605 -0.0013651428982122639 0.011735795256319733 0.0017298460542044057 -0.0041815624944417009 -0.0029401676063778477 0.0001113409380456889 0.017390881726160597 0.0099632386669863543 -0.006242732895360887 -0.012648627517146974 0.015140149830752547 0.0061689564179816629 -0.010610832997696088 0.014612558922120969 -0.010057800498519379 0.0028973504703881888 0.030973412128529325 -0.0028531013038316545 0.0053790674958077191 -0.0029065288761918433 0.011331635348190481 0.00038295395518153966 -0.0033189401999439254 0.013005145097854567 0.0063622917226238904 -0.01159939495950426 0.0064772473242647403 0.01618584277015081 -0.0060326141071433102 -0.003017009371933603 -0.019783078675953698 0.0045445010696600124 -0.0070480852795577319 -0.010063768495900139 -0.0089751077467128473 0.00060192940655144026 -0.0044319684519391229 0.027595282078298627 0.001451477101249871 0.0049159484844921459 -0.021214298744543621 0.0072714308775934655 -0.01420653742990264 0.019449854743951001 -0.016215593217527989 -0.022734175714994614 0.0010224245723216602 -0.0020535544558499116 -0.028795309582896264 -0.0021359022966501457 -0.0080993901472027618 -0.0069989228001036251 -0.0062520517040015218 0.063475654209830257 -0.0035700541781222587 -0.0077883378967728706 0.0015510975213255574 -0.022209853263605289 -0.010651095756819346 0.017497954148117688 -0.0044772943528865756 0.0078650870533340089 -0.0097931275818505421 0.0097559142547994204 -0.0049333538790780358 0.0066850007082883169 -0.0049216419758582111 0.013810873167036131 -0.013377717450584902 0.020333657751330517 -0.036277160224763495 -0.0025119252624219018 0.00080091163832108508 -0.01837004444265547 0.014773879380140787 -0.014313708595883563 0.026700495771143924 0.029545982563396436 0.0093460749086128163 -0.0043099669271178774 -0.0086778945453015229 -0.011442613539070109 0.011346506567747435 0.032098018695200715 0.012544963743404473 0.0054022030189483251 0.03675069209400527 0.013274629543904057 0.018803563260341789 -0.016951363073806333 0.0063203112905702054 0.017192066092080786 0.030650696138944368 0.0038014097621777362 0.0038182553234553246 -0.00083168587926008941 0.00042586956291810855 -0.010645016867170121 -0.0079581862331989488 -0.0080439077645070075 -0.014142153027862916 -0.0073867623610538898 -0.0077022569751152362 -0.00073161952301143123 0.004296736794770023 -0.021370941072327596 -0.0097256154081115671 0.020859337295471316 0.0013702649721816919 0.020088698633896798 0.053055536560440743 0.016116133286356929 -0.030273758420608126 0.020427655503757119 -0.008818119678771677 -0.0092605432653721318 0.0019026028390238974 -0.00019665894850416188 -0.0089909747751464892 0.015347462137603995 0.0023170043898586984 -0.044105137935888515 0.0073205377599345712 0.011309764507730238 -0.0033248965362549974 -0.026170784950510735 0.0084415864310670614 -0.0095746578005573846 0.012542934838343173 -0.024104689446527043 -0.037987710120945505 -0.0013288794996803516 -0.036835326025389914 -0.021462169828452695 0.011524753733333643 -0.00055229253324566075 -0.039632688680096444 0.014459816861137302 -0.021111559798558884 0.0010655353843601898 0.05231891238866293 0.0031142306449776949 0.0091599299613631321 -0.00049418332665336628 -0.013926264966321492 0.0015528566436900518 -0.02158097358115886 0.0054691204473664903 2.8466114582993696e-05 0.018258601446347653 -0.033292577737394705 -0.0048110972792585159 -0.011211268250181114 0.01172719735325168 0.018713763568405699 -0.026749538314503763 0.017411219311427414 -0.0052739671684267882 0.0046465298148040514 0.0088539261084610264 0.0094164474169172747 0.00067481545355177973 0.0025334192171943492 -0.061161713077912433 0.0031130992213356801 -0.014256443738539949 -0.016364805962321774 0.019285518434364927 0.012006906637651962 0.0026092248928542656 -0.010309812333862396 -0.012504992607462125 0.0061280956763168429 0.028663328921917603 0.036328895315367635 -0.00062710448082669082 -0.0080755690794080334 -0.00253102055175977 0.021919916325114596 -0.054608635838726147 0.025548636986743319 -0.0059489225279751104 0.0012801849758614292 0.017947723132711136 0.00070785165342826463 -0.026413266820942888 0.025740442168823457 -0.0013673494471135072 -0.033129942266798808 0.012306902124023793 0.054461941873339179 -0.0088035393285272844 -0.0045774950125402336 0.021525120072781973 0.0017471621135297993;0.083964458297399791 0.075903868355850904 -0.077652383441857598 0.027850419340015198 0.16007478778494127 0.08281058029686772 -0.027129567319514637 -0.028512870843512533 -0.05642288587984387 0.16403203405408912 0.019311355064564384 0.081130096262625045 0.043450486077271894 -0.069286271379585609 0.031617649523061848 -0.016533162055162726 0.0057889962421160401 -0.099664122976254405 0.034276646296275901 -0.089905995067772818 0.016782661247859681 0.028492513973102911 0.036868296125688288 -0.013927529913370165 0.019555807870043823 -0.17026670311494743 0.0070253116445709047 -0.049956241566378595 -0.13839787662384859 0.048997034661475564 0.05330308424732462 -0.0017418675015384022 -0.031091736703345522 0.031284152176629387 0.0014768775884955246 0.021534976316389814 -0.087448096589314836 0.037479709310838973 0.066369146863132944 -0.037107430515240528 -0.020552810366506462 -0.10091473210469364 -0.040255510813002451 0.1068121703883447 -0.0680441470765865 0.079434122277547176 0.014785982402213238 -0.11639848949540271 -0.071100972731195866 -0.11165881910835289 -0.074418545002012698 -0.035164628823060998 -0.011134322565621135 -0.024014740371017862 0.013229406185888627 0.0013721653559741268 -0.055729822444971266 0.0075846352185274558 0.046113840666813524 -0.097447143336447301 0.02748074540146488 -0.03525113921754968 -0.019579583990009017 0.03420701077096415 0.013755979807091256 0.016193645775275132 0.17603697907066274 -0.036262505143983541 -0.0020514716308452641 0.091281707572330617 -0.13218118699737993 -0.0009222846363956573 0.059711646548642888 -0.068395206987217586 0.0067707143206259257 0.011882425337791873 -0.050192439075202315 0.12643598929049332 -0.0923973397117204 -0.068693095231876222 0.012872889679837442 -0.090993714032853418 -0.019598350317208635 0.099361009945842474 0.083910364576887525 -0.035718126594955581 0.040354450955665026 -0.0087102778275525983 0.13879867461338088 0.073921925250190895 0.062439510637041368 0.011872914696111942 -0.040124742699177457 0.03087679576216177 -0.042608499522305596 -0.043315535311446482 0.15192267636692192 0.031911909972628397 0.054538861254499645 0.034605652289851616 0.00091137926385187452 0.016878980013930137 -0.013093014563818811 -0.011775064051184215 0.03511852527456813 -0.0093200392283436673 0.021142709474107828 -0.0072802195224948799 0.019240814169740012 -0.00787639465070805 0.0011746013932040084 0.022945384121819169 -0.012471080355799278 0.034247418338823818 0.03421068211501728 -0.0587597323626411 0.0030257776102603634 -0.015945026518253243 0.03133903922774952 0.022466201518965067 -0.0027135612753850721 -0.039314956346748274 -0.039863071714027566 -0.023605691886228932 -0.0086920430958766001 -0.06714715825390688 -0.00222183043909657 0.021974196034506316 -0.0066351264173038832 -0.031991867322239853 -0.01925627304006796 -0.015350996562836033 3.5439216798502718e-05 -0.011633400060881909 0.00555951689702959 -0.004965811559484206 -0.0069707557593459823 -0.012023820264150595 -0.0018367101191531648 0.017739125063553466 0.0018779272396510132 -0.0027858183460738803 -0.036965128777510813 -0.011739714468521536 0.015858717351887298 0.011599502858423427 0.022932834409126746 -0.00021052480310207802 -0.070240079092413532 0.023054777799724167 0.0010397393113214005 0.00022882056715931888 -0.0022623855089688467 0.026385185198199046 0.060865982515867847 0.009409180841068069 0.0030030803129678998 0.01636832946985272 -0.095674356870134453 0.0055027905186450215 0.030184676186672886 -3.8445518325332757e-05 0.011364723003434399 0.05703623267361746 -0.019798006047066937 -0.0095964338273690792 -0.072316953668653816 0.035928472484179491 -0.025093174438264088 0.0082369565662190475 0.07148392205578924 -0.016765653137277896 -0.040288965618971787 0.0133031614447367 0.012480292062986396 -0.0067934876026734536 0.015438888510076652 0.0040575926209161783 0.018555188736629032 0.020601145593102946 0.02608260063723911 0.00021582155476380233 -0.029151314910622131 0.006293548415469627 0.0060915111247720061 -0.017562940658891517 -0.048608255760717298 0.004845825577736787 -0.031618366159803374 -0.12518723591411679 -0.018816549539150941 0.045516791811153104 -0.02006331701603227 -0.024205660878068788 0.00051885034649247486 0.014258599497108105 0.053377611142880553 -0.053721679096849689 -0.0073343271021583546 -0.0039311390047051531 0.0080115866716025212 0.0009128821838632166 -0.002995012333132846 -0.00909140437936342 0.010413502770904783 -0.011255019438420237 -0.042794492165725409 -0.046932211056542293 -0.032613665048632584 0.0054076799132015477 0.033857408746193307 0.0052702524299182985 -0.034146516469302335 0.021819752416600627 0.025274218233011556 0.020285745547337961 -0.025588676232251591 -0.022124914359830689 -0.01547483349718818 -0.00094657988749253499 0.034992919223144785 0.007235244489951817 0.0089864061995809895 0.036453140458026653 -0.0077395724461050974 -0.025736965154919758 0.028798449888441706 -0.018263922240459335 -0.0058422547997385443 0.0060736342957012322 0.029551848785265282 -0.012303425664969746 0.031469041357088064 -0.012805546089245327 0.036231815081200519 -0.010034417202558203 -0.0073339742716957684 0.0079713647898534828 0.011728367745735019 0.0092024771795048074 0.016117204757315061 0.026492684271324757 -0.0085525666163243017 0.033027844226474284 -0.010514137067481872 0.0064886486506038239 -0.00018485600441152513 -0.019190126702314934 -0.010092316611153812 0.022738105988816176 -0.0031217980052243742 0.022788663295157698 -0.046237369125129817 0.01397327668962247 0.036091433116411574 0.024515027758044705 -0.029031157774365431 0.0079813715707964944 -0.042079705096055194 0.0022645896071512329 0.00033151385490305663 -0.03095061274576363 0.013363792860803907 0.024311942765116008 -0.0076915966651041508 -0.0089120201574995651 0.0008177311854054728 -0.027673377578167055 0.020849541802553568 -0.017506331419908795 -0.031649214302919532 0.027966796601344594 -0.026218281237991223 0.001927523369314595 0.071539113669885163 0.093318063209785751 -0.038691081486525281 0.013987737924192795 0.018240901280408089 -0.015363872904434753 -0.0023451631030939782 -0.021149823241028209 0.046306512546648013 0.0099061990204405981 0.029191523445266584 -0.0073422988111115049 0.018108909022590672 0.0065814516040783892 -0.043272253027697161 -0.00077898277643020583 -0.0048311291011841305 0.024615856607848159 -0.0044352016669379282 -0.022192096851137939 0.009283423068947208 -0.079674760364150443 0.02441918213697724 0.0060477631955433465 0.006234494080406567 0.016841603980419402;0.061483389226549626 -0.035440553823236978 -0.040990708596992581 0.012138299097758348 -0.020546226684855666 0.010043190272228039 0.056829911997817867 0.037785633860211852 -0.17139441769415242 0.12670303268468741 0.060444053168837608 0.0019553026901356629 -0.01182947766459853 0.026535132809066213 0.058136488476513301 0.0479419594005005 -0.030448195709641752 0.063605960411947687 -0.018538460458280219 -0.12186437251810152 0.075502103603890452 -0.08550703560130285 -0.065052386788246624 -0.098409683328268049 0.054722981053063773 0.053783897331787789 -0.11073834220291162 0.04851493478965592 0.055059927340963592 0.080699312830179046 -0.11137077801388905 0.038272809643315836 0.12499743285125087 -0.071598001566927388 0.039785967528661648 -0.025020596072291568 -0.052338451709908557 0.06385903837475615 0.11141485467194878 0.0071946222559852169 -0.036330167727459006 -0.034492137865030477 0.054418667664840707 0.12271028548152291 -0.04541892233764485 -0.09801092134883721 0.052494976585579022 0.0632987482521018 0.017986655184542372 0.18392161631401924 0.015080021832772919 -0.018584703824599647 0.0095099314982434822 -0.00090856508528515401 -0.0039135388460070711 0.012495892110926887 -0.018435263440863506 -0.026926380925027693 -0.053582341758048407 -0.15462111794254674 0.021333247590748672 -0.12950971423946617 -0.019672961139317116 -0.0045636679024466647 0.080963706309524375 -0.023046665197853408 -0.065823709888471721 0.023266248483613618 -0.0038484603302541276 -0.093486170123059431 0.075083774404996487 0.13072290234715792 -0.017536631054905383 -0.070587510727381036 0.081207990952372189 0.083545624734943813 -0.063048508760524036 -0.0049607631258442716 -0.0033572749104336386 -0.031340651254788146 -0.020570936758923658 -0.095686476666859199 0.052532320658215358 0.17682307439377098 0.11833204203040121 -0.018226907925763036 0.010722605628931136 -0.016996271411080392 0.14455875604175372 -0.05167457370155111 -0.019213087047642574 -0.11000262022698709 -0.0030513402174438295 0.059213859684508249 0.016330175226191391 0.11285796529166198 0.043905956075067032 -0.15666467626592773 0.02021233419985121 0.014354278779737398 -0.008245862410272975 -0.0062603078018156795 0.0019291028368255293 -0.014041568916613619 0.021021132880730417 -0.0039826770231742347 -0.021851300558296233 0.0077240921897913199 -0.0078871210103619877 -0.03564102868719269 0.0026239903810252674 0.016851470891977527 0.0077313778885544845 -0.010553292637128387 0.029000290553199318 0.023999890325028819 -0.011604300342146191 0.00064973087121763043 -0.0015622841692819814 -0.022462525386389934 0.006637474532923405 0.015940696161623205 0.02059879046866743 0.012199376949644042 -0.0024307607798388156 -0.021964524759731784 -0.0010376443343781006 -0.019079283385663955 0.014474367293406433 0.022166541552551586 0.047875582934335248 -0.037545486897375899 0.029239281389657056 -0.0045520938518612206 -0.018730316204159679 -0.011327001613146787 0.0021162097067819914 -0.0044540769039155201 0.0076634183287449358 -0.0017360969754106857 0.0090918356668894425 0.013998314167552858 0.015841685491505282 -0.028737832263628013 -0.0060439685022212752 0.012479259333943723 -0.082381952561052046 0.014152768948148438 -0.012982985932982638 0.0081802400620074635 0.015654814754611345 -0.0048452564622047077 -0.00059642134214362916 -0.027535656257275845 0.023706586580986691 0.025702246751341223 -0.069782634822430398 0.004234689016372549 0.030683180337288285 -0.0067522080876056788 0.027147222000069339 0.00058276852096043625 -0.034089703067007128 -0.021299411309126257 -0.0032224195463646976 0.0077653187194170852 0.026865092163859905 0.019228711590168708 0.028093485860085615 0.0059426739047230785 -0.0078924712435109248 -0.01444966772467946 -0.016508501818217038 -0.01178343573130811 0.037931719487099773 0.045818024534375272 -0.0052431087796118228 0.0006079469923780962 -0.034355128422784029 -0.0082043324923075298 -0.034084115963009295 0.023889541966642242 0.013384745540185872 -0.0098162104096568854 0.024665791713075723 -0.0084167898777325282 -0.005242910473412965 0.019381743225353028 -0.025141249140683053 -0.0070513522747402274 -0.023228820092402798 0.0085574782705214354 0.012221270223843304 -0.014370531919715185 -0.029151703279057604 -0.0016379428021715669 -0.024683402255610068 0.0011661475424010435 0.040527174856334315 0.025145417426770324 -0.014058160182722206 0.0035523790949664115 -0.00104326283573037 0.025136829894694644 0.023023247591326092 -0.044935647645218679 0.005618730622429742 0.085514893502581762 -0.029483052343285812 0.03726566652887757 0.070154863890829783 -0.011221879264912811 0.01820195812952639 0.0077460984012367338 0.039637468414719268 -0.0031996416816883547 0.038845849923817982 0.067397959766300267 0.012969019622457709 -0.0012071963421569094 -0.037501073003942682 -0.027033127142731601 0.001577419330096131 -0.045786620011634999 0.032393210463667686 -0.037840034092324087 -0.0033786048647427326 -0.0038895494705096199 0.040614927107815821 -0.015305794651144497 -0.068098013537561966 0.010176147991836141 -0.05013196324342873 0.0043488538878565103 -0.0062319760236210636 -0.0018903188682062484 0.01173446082811864 -0.018517129687270463 0.057088813518964811 -0.056568189980036501 -0.0096902542819375104 0.052884437961311287 0.024580190526797399 0.022457947951364063 -0.01466556682905535 -0.011301037556710823 -0.0031158954617893008 -0.00013642327798644299 -0.041211412390779474 -0.038272002364739405 0.013725527838411168 -0.037285623877689106 0.027255965889005685 -0.01268257846843554 0.0601219247226241 -0.0014880810920561774 0.036803043748241573 -0.0010474933249925641 0.027343961106599549 0.017120852705622649 -0.017120363271810865 -0.022584754431624755 -0.0075104340082658635 -0.0038780676724505872 -0.071690868321618875 0.0096916020626259015 -0.0034942020616643811 0.0077575816945878945 -0.056076673947240113 0.0095382717331366842 0.019386082055183516 -0.035942630081123236 0.059934245709426251 -0.011678966944293646 -0.0057063671418346121 0.026339277626356183 -0.0071464141387777803 -0.00065610157641712657 0.0043887452216681971 0.0097753013184870632 0.015619853539223311 -0.040703472875017813 -0.021771479890007633 -0.092770670675730679 0.019496019411926128 0.019872361110299469 0.029997685106301838 -0.0034842931197491761 0.017538084713538543 0.0089632825272041861 -0.013963148756033491 0.0024860746441288054 -0.032444941322855053 -0.032106443074709112 0.086259809971056478 0.027310414652234542 0.024485659946640998 -0.08642408177609498 0.014898779287133075 0.043787689002701573;-0.022014693520789289 -0.015813362968096843 0.021601395845248714 0.092203657316975038 0.055478545072556208 0.079765386957789258 -0.03974791328730562 0.18637025472194349 0.049598619792023124 -0.12926329497512079 0.026590578524074496 0.10654509465702953 -0.0049932022589042543 -0.049284099230334347 -0.10009023896522404 -0.12111115281711561 -0.017078534212015412 0.076379937117222407 -0.064095653930676177 0.081618773298859443 -0.0074210436125884648 -0.003772472451137758 0.01214241196374773 0.010176179723552656 0.06533878248416175 -0.038260277245545024 0.12077900756441097 -0.015548537052106778 0.035037837142975092 0.0088331556685102702 0.040827229420338597 -0.011581311292392447 0.055346994353178601 -0.09095940750194359 -0.030228543756814434 0.0011472817131875784 -0.13390141528532254 -0.054436593842008635 -0.092305076774954364 -0.058162327772607485 0.023573031582621307 0.025338261657881785 0.057163021991971825 -0.041147657918459632 -0.033010667250852561 -0.11171203145292935 -0.026186642787902545 0.0053320590875684665 0.035192510640054096 -0.092609428153455201 -0.014310856735117183 0.0094384358597731088 -0.014703580813206808 -0.099639429771025856 0.0022125064678672618 -0.032885396719732403 -0.039950566042515234 -0.0096056954707206821 0.014401057446742915 -0.1586238904463077 -0.0060764150381911273 -0.1239853196089005 -0.12157192484511106 -0.022567855630535982 -0.15033157914921944 -0.023941170682523716 0.10367286990616219 0.010935678446304661 0.081732459400470803 0.077564558773491665 0.044388720616306061 0.14804571723232948 0.027187273156907547 0.021496327966495064 -0.071635243395109266 0.13013060952984012 -0.031784068582410334 0.01613349489932837 0.025896212642574676 -0.10998815567077766 -0.046435155279727434 0.031591537855727769 0.047757059433329613 0.042977424293004753 -0.018485684579419435 0.078885623629482121 -0.094032421706857466 0.00088591931291642778 -0.12536792821883272 -0.023160870382418257 -0.092468807661509694 0.027153079546363174 0.01629694832880928 0.048904713575211277 -0.085584645996532371 -0.0051179593774541773 -0.062808994466105494 -0.12098580060072599 0.076986162368369207 0.050635479170389276 -0.0029348979529821499 0.0061848442435629303 0.031132672763931536 0.010070735749193397 0.015280748098718398 -0.0074319533968105912 0.017800325759292565 -0.0088801035026233929 -0.025943515909912222 0.012339079891294043 -0.0044487899628640783 0.0070605032926186508 0.038758351055241475 0.025850233770186359 -0.028589491845463895 -0.052444735203363721 -0.034177531469070183 0.050005856094156163 0.038435584548311905 0.0058870914286697513 -0.0073970201150722883 0.0069741837790159369 -0.003952538369011941 -0.0030249956586436387 -0.0021215695627247004 0.033028792864986181 0.00064173719282880248 -0.017746371907178985 0.020081545841715127 0.036342522715100467 0.021731027260786524 0.0059899629932390827 -0.028997408629283201 -0.027546564932593675 -0.015240817238210658 0.045267711494875039 -0.0060587563361018965 -0.0069731972286100298 -0.040540862511233983 -0.019476232297540273 -0.0015985441269682019 0.035574514910000021 0.0096555840086549709 0.0040528326100615708 0.028912590901633083 0.067004967744737923 -0.00057085932439565504 0.0048281072608768773 0.033220628130625887 -0.016695765954342676 -0.0042072548405039968 0.0053905010159706838 0.0075681270043563729 -0.048494649463717301 -0.024222458295415361 -0.018496233964167198 -0.04841586280660716 0.0050497682479926573 -0.058781676215626862 0.0080963095058857251 -0.029089177191014903 0.0018124731803494352 0.021797711877613386 -0.053514569671713877 0.021241525340187924 -0.021372825316437111 0.016092172325252188 -0.018602857901138581 0.01702162407108309 0.0018860958255085408 -0.015941177561011863 -0.007885285935473791 -0.00070914553870697616 -0.023631386749929609 0.0045706434162695198 0.030383887043967991 0.01191877363352771 -0.0051784294272200675 -0.0068023600694125065 0.00015133144686730292 -0.024738665838756259 0.010264847301741896 -0.0066459251882507037 0.071231529662736548 -0.032055393553564446 -0.052107058918407653 0.010594305900647024 -0.025950529452929957 -0.035359530331957684 0.041053427139816502 -0.039016566629849439 0.0025215353738372581 0.0055189884447876137 0.0021172882940842883 -0.03090733820070387 0.0047772099615699514 0.065871118699321857 0.019671940098051857 -0.025835885545103812 -0.016524075147759026 0.0051664701093158492 0.0053427869156307201 0.0068318520670668566 -0.001531825975350197 0.0071592497176740412 0.0002514418575687334 -0.021272616615435388 -0.016640095829770912 -0.045289629934246581 -0.0071780540051039144 -0.045055269779102042 -0.053036720988581365 0.011013567712238123 -0.018875595490442452 0.064527548844475063 0.035532444743928929 0.0026446152268432476 0.079682309765187781 0.034805865152399369 -0.0045957441379689996 0.0067306155943199913 0.021219694186144243 -0.0031739314304406524 0.070069310409804908 -0.01220722921442401 -0.057463814521437145 -0.0056662705278518605 0.0082063940639419755 0.080282302380613763 -0.0042241472678737563 -0.049972063523003915 -0.017422566170406072 -0.088537489526618524 0.0041924719562956795 0.020809874976719631 0.020281883245330864 0.0056233524344703389 0.0018825539940974956 0.010486924623622492 -0.0059241667381496298 0.015046412841005531 0.04417314685010805 0.010116098635006839 -0.012104973493322157 -0.02930853717372018 -0.027846223782598642 0.0016858396467027523 0.037326068020270914 -0.023980127577180405 0.0039181895463004778 -0.0033807156702882462 0.014695311949854968 -0.016324283050191422 0.02192701860204917 0.039265454903250355 0.0049361807806069906 -0.022300213944500047 -0.0064832583052265979 0.005585510596007065 -0.011646507030861755 0.021438814772034642 -0.015496410487983862 0.025535409917599766 -0.02037095069897802 -0.033527328243360063 0.016444917768010998 0.0018957170320011581 0.006453629702230311 0.097903017207483969 0.0040931724333153029 0.020755841321945225 -0.0076013712440124153 -0.02062088468886409 0.014759660134807409 0.03109367297791342 -0.016575222052755044 -0.041042275505518568 -0.014792997967001221 0.0032409420621491297 -0.030230968886227446 -0.0023192764135928634 -0.023038617454015555 -0.008581990203134349 -0.013474402276157442 0.054379030076730575 0.0087908839429690494 -0.012617379060854927 0.0011099922444688043 0.0081559597489991153 -0.019975293951637101 0.0042528757853195001 -0.042548210802478045 -0.035476363723599261 0.0016010459922151665 0.050266118101807589 -0.0059081447386805305 0.012109262661935767 -0.029031558475979668 -0.033173843843543528 -0.0096656282862678817;0.0044941121251100696 0.04567544478599217 -0.17786739523936543 0.039620297079703645 0.12740885671707974 0.048557807344724306 -0.032034600783558242 -0.0034818649317966271 0.026794219896866971 0.05927271245150828 -0.061342161823586594 0.042658840262491927 0.11188721764326821 -0.082689693525229813 0.032460558856734205 -0.07541629989344184 -0.0060230447457838426 -0.10414842528086399 0.013314626791000407 -0.062382713989523414 -0.051895161592019103 -0.036751122175465584 0.00038010666791222928 -0.024201280166016453 -0.13980497397671951 -0.047955001942677919 0.038470044385993954 0.036028272737925991 0.004141912175225259 0.013744415560254072 -0.022371054501762286 -0.039592201024208525 0.00347342049910776 0.02474604010940526 0.045612774961850795 0.0093706303239451914 -0.078563651212708974 0.021444834921743858 -0.04987961687488842 0.14300232053016265 0.036965291445965033 -0.014729830441089997 -0.10682954201470984 0.019583022826428473 -0.052017371189941014 -0.087701149248567506 0.040189678494945702 -0.050139962184326793 -0.014026053320836515 -0.13174667183888367 0.088131554851415564 -0.0047651684610015288 0.038714610458260391 -0.036820979465004698 -0.034358940604173681 -0.03473370852340639 -0.085621685898140537 -0.0074060067360622005 -0.099040430427841109 -0.045122731416006853 -0.056160188364343833 0.023946346393738084 -0.038789977093380688 -0.03537808306803511 0.0070357362445014407 0.01177288251241735 0.0053318615078768346 0.10546930749589141 0.075974355000814509 -0.0031952165339535973 -0.087295467713476738 -0.01386492308936528 0.038190809026087714 -0.10983722866830009 -0.037075661988820424 0.18357387902334985 0.12160978386314135 0.013156496147867021 0.043061619256945495 0.072227790218983137 0.0060970398763619503 -0.0085834335550060877 -0.018522807246496409 -0.010415074040256378 0.106332152126489 -0.0075673998277953174 0.082871095849922999 -0.074010159511093826 -0.063061806761351757 -0.053188277828800069 0.018252033578787852 -0.10248141207713522 0.083241804929561763 0.080574531736143595 -0.031995009591741168 0.068538032360448475 -0.0074673922066050211 -0.18903914750867332 -0.028781623190285339 0.033130540727372419 -0.0015846393080439457 0.0064152052793592824 0.025570154899603195 0.026811637254904971 0.048281540546550539 -0.0065467357469374144 0.0034628364487140802 -0.012050319422102508 -0.012336926947830104 0.00064104399392056477 -0.00097284938101010326 -0.027936103640285363 0.028382913815853617 0.026884934839708764 0.0015879642881265069 -0.055952393256051496 0.036641881871503114 -0.0043018113589363659 0.020861683004333598 0.0078563017565857398 0.007538946935788284 0.0052472364865047659 0.0042008497379968333 -0.019987995686080211 -0.0012656233944371813 -0.021481738433542251 -0.00097265806524539193 0.010413004187115306 0.010166988266582426 0.015229670352568144 0.0061941879886669576 -0.053711474408969416 0.050906511810509834 -0.011332930741854236 -0.0084602001768118822 0.0048286533349322612 -0.0044356873114560127 -0.011370900081732443 -0.0070993641943192217 -0.0070701001256916977 0.003583607220242104 0.017727858929660105 0.004225740443887311 -0.0097093529563134148 0.019173601017788984 0.020143678151205296 -0.0045955233008604171 0.022362227033884279 0.01532175230532867 -0.0036547287998028519 0.0087943122104210403 0.0097366463161611093 -0.0093598647920454976 -0.037225755062944135 0.022214443462067072 -0.0041821112068885884 0.000944365298356592 -0.00079418047013613338 -0.035212496313400968 -0.00213221896404381 0.01271858234055127 -0.00062652640679756316 0.0036870269265577103 -0.032141411653956099 0.05573945757483377 0.00062669755367859934 -0.015109411061641978 -0.030309555546029092 0.01669049630942538 0.026836847116058667 0.058154875602961925 -0.011199709339541055 -0.016118050215705809 -0.014259606867590841 -0.0075652483835715774 -0.0048791848337888973 0.042014548747655693 0.00026377560171287565 -0.035672596543629323 0.017472611921115693 0.0011763726066481017 0.01800224789057937 -0.0039012864331679064 -0.021054435815337027 -0.052465808820142248 -0.045633694471499113 0.0013992717293213768 0.0010631956846132301 0.013908312503540701 -0.060553103028389559 -0.062033932175432335 -0.0090276827038885676 0.00098777104049322523 0.026873716569452158 -0.037376344267244545 0.012501450377714239 0.015441476570714464 0.025989401958979794 -0.033425818256461758 -0.046812886307051035 0.012031164255272078 -0.0016117173899839394 -0.025740243606881381 0.0031410966737682247 0.056451804651412779 -0.0017878524821594213 -0.01822450349645869 -0.010356927036925059 0.0072414011414436846 0.0042961472421581218 -0.046438057190032703 -0.068442609066949295 -0.0063835477659037873 -0.0072493736506879652 0.052629160737539309 0.071071796886790203 0.0056947485623758207 0.025060881336461997 0.011472315499664154 -0.0051174633753260966 0.016934954486392866 0.01328155616912809 -0.0076626739979454937 -0.046793312492463192 -0.0046041277845385604 -0.0029109942519663923 0.032096291479074758 -0.0030889880280330698 -0.039804334913142669 0.014261536475861642 -0.016145253119354865 -0.013184249067679198 -0.0080497849061458467 0.033903517125664889 -0.06478090660787772 0.049207875790463262 -0.0037586340676854218 -0.067382429432655419 0.018723325769436458 0.0079989683079208836 0.0092026582896935771 0.050186616779111529 0.0023762600777748055 0.028806844159614691 -0.03555111156808418 0.0025896756678333299 -0.00069026339692094662 -0.0019820412791780439 0.022777139360834742 -0.0095612962211533911 -0.033185765238671651 0.0085727201989197269 -0.031690314021938795 -0.0010157393535724767 0.033571101257721711 -0.0077557305472341284 -1.9983348077743388e-05 0.0010603000341313056 -0.034922519136523195 -0.012474284268444616 0.064307702099886191 0.0040857343264614869 0.034023985577682915 -0.0072010630732243439 0.031780180271517293 -0.017429285089356834 0.001007324160295967 0.01633145018779604 -0.027435304969597597 0.0045527685978942207 0.017115773860349175 -0.005577540375872346 0.0028718448138345364 0.0026741801025353127 0.05474393012946957 0.046668313020306475 -0.0082022171295219604 -0.010312489333924991 -0.01902168627130036 -0.038947898775445904 0.0088738814837713235 -0.043669447983309198 -0.0071012853753944297 0.013711877442653406 0.019096807356505811 -0.011998869461652791 -0.041405852032633111 -0.010862977928159261 -0.010758338456469717 0.0074380723895991208 -0.01767739564764334 0.050834050299389408 -0.020096356398529511 0.010215121290751507 0.017385445694465464 -0.094794260389839846 0.0010800383708479064 0.028042728861913401 -0.013190138062314227 0.0019146373351907227;-0.16196051897906255 0.0036701598030159429 -0.048488691031506576 -0.068166982788266148 -0.010261233069932305 0.058800496134112312 0.024763703843641474 0.039416736578209426 0.041863019511801436 -0.049486091939874632 -0.061388070702282534 0.066556614367020317 0.067950191471236307 -0.056392527950833826 0.06886316830347318 0.12466697375139929 0.063766341466779439 0.10899771060516598 0.17375208758092461 0.015144772057636952 0.0093080534267457465 -0.062675980373261719 -0.0049050664610739494 -0.13078129963384799 -0.08075617494262477 -0.035035430477631746 -0.001337492899037545 0.025346724415613808 0.10677838993686872 -0.055826791829749534 -0.077916255639422394 -0.018237495555263952 0.016771301089720206 0.10771473065010832 0.060005071064146182 0.014405892952269184 -0.087469044277727143 0.01773038944712825 0.033493054893446131 -0.01219011936193435 0.089407830238604866 -0.13178086017449325 -0.022930147295269494 0.090236973237014989 0.053831836355468433 0.054071039629372541 -0.046759558717737931 -0.031716818219285403 0.001583429364553593 -0.012692840216588674 -0.038788736011131184 0.065257773759377621 -0.054303380833347424 0.097745360483059346 -0.14513855625563887 0.028510222238895259 -0.011036562749801887 -0.053702515541208314 -0.037902132870196274 -0.011042055608521589 0.033584986572116352 0.058893291146462953 -0.0072696246154227012 0.076919158966821874 0.21741379248114059 0.027552486815118904 -0.010821460169414078 0.065778752999742895 0.036795220054434419 -0.036244102866206912 0.069843044323473297 0.21297940726244446 0.018873307736004763 0.058157686830961092 0.049208522715335289 0.049518056903538409 -0.055777724144509433 -0.10553584045491743 -0.043450703331730317 -0.0040402780208394044 -0.0016255004683544752 -0.082671536366285631 -0.054876636217084711 -0.065522035293896053 -0.023313368180825564 -0.03714069670981289 -0.065516364620742645 0.030098841465863533 -0.016957471360107015 -0.047338728639195818 0.057280164658956745 -0.13029298219912255 -0.0083731480755290591 -0.0018198931314082224 -0.10109955725421256 0.031479668723596504 -0.15737101827153036 0.026856862367663506 0.085976707017869136 -0.016572580208260919 4.8006270026966892e-05 -0.0055469494734383708 0.0094589562694318979 -0.023509868748754367 -0.0096021586739148852 2.6386647266044352e-05 -0.0016042899472447462 -0.0040647338883129779 0.0047007377451026401 0.027968685553699246 -0.00070842248457037797 -0.037661963575792684 -0.0022197427017153666 0.0080431272676082521 -0.0022622473478276506 0.0027489453442123835 0.014481799879970801 0.043450912876015643 -0.0073429005393663999 -0.0087193711573361962 0.032891807597769086 0.048265451395144189 0.018518958957802721 -0.0001302687328133198 0.021915015103792325 0.045714038687142466 -0.00036046674725065202 -0.023814843924370992 -0.0053708641293524831 -0.0023442109263043832 0.0077854110708914931 -0.025122283536425205 0.023952056497631078 -0.023489984785367495 0.0045475514436073821 -0.0048175930321100909 0.0027746077121886849 0.0042386383160551017 -0.0058331771053085936 -0.040355777909852647 -0.00014759995471794662 -0.029136560872579795 0.015578062669318417 0.0029160034665092795 0.0062969411285611811 0.032868621336947901 -0.009328814937096773 -0.0070846205407552043 0.013586561480973737 -0.021061068628317532 0.010426213098483232 -0.039890578909778963 -0.00881273289262661 -0.060287710283368948 -0.035528179210067318 0.0095518637376565633 -0.017544654271450549 0.013129127823173783 -0.018632164400221529 -0.0044822792146863265 -0.020878010403186268 0.003198604840111325 -0.0012316006125893363 -0.08199079845427204 0.08786259369696589 -0.016455378001112825 0.014630739641877638 -0.021583628743576506 0.072098276483375565 0.0077018693502558314 -0.019661762413151464 0.0043262921983781497 0.021429686936949417 -0.004129718787021704 -0.041221480815892012 -0.0082842613308730592 0.0049646997270835352 0.0088527803023435749 0.0073543350302983507 0.0085121793508507841 0.0044372899765740964 -0.00015151814519042892 0.030305230874604967 -0.00041110129088576565 -0.050858229712560599 -0.014718727198995276 0.0011928028375281854 -0.0048521948583393464 0.028523012366436278 0.021256439053814521 0.0071028497811376828 -0.0097734680805615787 -0.0049721941282844673 0.027965645028205751 0.012908669436423206 0.0052940554445833933 0.00044802692887499566 0.031302829044426911 -0.017864672941383199 -0.038276293623635445 0.0039489946452658277 -0.00096012363345710687 0.01625208461672208 -0.035030776954879689 0.013095753335851897 0.022243197597811598 -0.0092013396033071987 -0.046530440001286005 -0.030997254107279271 0.02803321750755474 -0.0063986674908867412 -0.062321183782019778 0.0099139901648432026 0.030834320565924233 -0.12203192300259148 -0.036266497297544047 -0.010346889413301606 0.049238647332237165 -0.0054974669428936185 -0.007129857321997897 0.00035982376076904368 0.024928166042100838 0.00025074259917277214 0.0022184807029028229 0.07585000547838025 0.024985080166209844 -0.022790529886337431 -0.0036997371012162297 0.048118712615018565 -0.0033595753061397473 0.0066689547368919133 -0.011148626331032887 0.037264639101079855 0.019250407470159138 0.0040488345615126292 0.0066128065929942897 -0.00013867877340108074 -0.0061106261375654218 0.0046334516820950682 -0.012436983082012253 -0.012799358544406787 -0.030776780747886819 0.012578760387503886 -0.024094851010071756 -0.013948701679843608 -0.00031982153244424633 0.010194500578901094 0.013178455517366107 0.0019168425309045237 0.0040237572635474072 0.00031194826667262218 -0.005453070142730684 -0.051061880669240368 0.041840234194148278 -0.040914628012042355 -0.047103443455074993 0.025081478414315451 0.048895355885600143 0.023478412634819742 -0.00010184467089394914 -0.020654280816478347 0.0053129523000542533 0.0056880964617549469 -0.03735382714916409 0.015893738410591891 -0.046785256873595235 0.00022295945807519627 0.00035279231993497716 0.0054150217748323067 -0.012360850335189228 -0.04934270240928415 -0.0059452422162750681 0.020189882111202907 0.00409023724412165 0.0028273489550273354 0.028171042422206347 0.03037802901934706 -0.011575166358365325 0.07055989995301068 0.026265177212973313 0.00010262042863451231 0.0013708055972275063 -0.033609667848088595 -0.030345067380150373 -0.06400933936587215 -0.026172278921497094 -0.0033940676387662246 0.0015819565172118626 0.035289362648817151 -0.0014251390096421471 -0.067901735381337563 0.012446391472913782 -0.0014830934651283538 0.011755094492104497 0.0033704691229216339 0.08084731486074366 0.013824910650285238 -0.021554696389607671 -0.0088923830382189751 -0.029285402030048924;-0.0056492623003138089 0.015585154639971826 -0.22649433251523279 0.069118032187220624 -0.12491268806797437 -0.12122054312153431 0.0095964088894017925 -0.038946541964992365 0.042350413818685359 0.20844428022830208 -0.044613441282957217 -0.17629142222450225 0.094942698421946609 -0.010761154244221041 -0.22316567718356314 -0.021346605902118228 -0.22502374897729091 0.092154192347250682 0.034487108560825423 0.16468990762224672 0.020279326572986089 -0.052453091605989391 -0.042378114368929076 0.038773157881535791 -0.065607269164388124 0.019234609496819738 0.086581187365988937 -0.10485718258766141 -0.069670339947591337 0.010995369377813223 0.17010405925730696 0.056316050646921051 -0.054704767371146899 0.025009732732788354 -0.10981656117389135 0.10193306925232837 -0.087506658032908316 -0.032840818994772696 0.033577143531185738 -0.12962674891188639 -0.086928678963466482 -0.050504898158632801 -0.041604252360620972 0.037921364874678912 0.082736523421318431 -0.089089430504760939 0.12522018654225694 0.088447456685546655 -0.012898860839626589 -0.13176009876188435 -0.015867253957183476 -0.096342416188524821 -0.018294745900140991 0.023284576224227652 0.1783688223246184 0.016934852781106357 -0.14364296802058479 -0.11382422510795749 -0.20648322762077637 -0.071113382968564121 -0.068362742481878444 0.081626625301130004 0.081999414648749963 0.010714715029442679 0.29393654343944103 -0.08127539830297778 -0.0053667112454267793 0.015459312269842627 0.038968378799771615 0.084935725560183611 0.0030331250125608319 0.068534978188837414 0.15685662077383189 0.047262819803177793 -0.086587489741134033 0.12007849201667806 -0.11779903692012723 0.12088857105459523 0.069390913983828947 0.04572706937391835 0.036840599452134908 -0.16847319913034364 -0.00026650742679490413 -0.18637834065623449 -0.1527366627252916 0.09361576450567545 -0.060239254828932179 0.10285548188389551 -0.085956502954600084 0.023508829590663142 -0.11135545621716252 -0.028295459757580719 -0.15107689917191489 -0.10090078934363994 -0.029005581804842001 -0.074950432409781997 -0.13285043564480478 0.047712561756509723 -0.034348748505986647 -0.17059090910673982 0.064944130130212829 0.027007879079099916 0.073282360223765566 -0.13725860323223468 0.048425829669866312 0.027184313734280291 -0.00048772216735554555 -0.0045339314830245385 -0.026070724656926621 -0.0065589249300191822 0.015264395314510591 -0.048294185617409321 0.017037110838492187 -0.06905495722655329 0.059522232549342587 0.057857287580182909 -0.025807596761638116 0.036976338044664936 -0.00021301861843662194 -0.068638787118416866 0.067069871884090582 0.030933805844782655 0.066072269300550643 -0.040444754777173346 -0.10597195953542204 -0.082741274710544835 0.026587141078092884 0.003138757155615686 0.034922699813818937 -0.032771082815198485 0.067133348970715809 0.013947880662827209 -0.081564705822098793 0.10639238093932786 0.0026326759116648141 -0.025994377121258624 0.012874449174816949 0.020688912389109235 -0.052649462357293543 -0.043446039186666424 0.025212345879767631 -0.056536492095737363 -0.10657571164210769 -0.064737077325284151 0.037311622197630394 0.0075922658714281579 -0.0010198796475584249 0.044799391187611066 -0.020319050460857704 0.090873548798051929 0.013103796088646849 -0.017166115220276029 0.1092875807919442 0.15152163145260614 -0.0019206989147631803 -0.056947473154149705 0.02929523992209029 -0.021815490269324382 -0.13795855451593353 -0.026904183927388383 0.067244643196404455 -0.012707200277653163 0.0090810549476832026 0.042755396576045768 0.074749469088978227 -0.017462861597273151 -0.026027394136609119 0.070659496897122948 -0.18179527944503193 0.0011704298791087239 0.0099347955608103927 0.082230609733805041 0.040784830272581916 0.098255289185802411 -0.096155726041484063 -0.03528055067746181 -0.025653975539103608 -0.071547366272514304 -0.073443469740489056 -0.035820394625653756 -0.052660411162737217 -0.021863106901744683 0.028576270053215135 -0.13549145969849921 -0.043169264132282205 0.25765204370605443 0.0051163293319468547 0.060236546591359734 0.0090580734336347529 -0.045594859783376136 0.084464647796141865 -0.070907382252062362 0.1516992565824028 -0.14596971384331964 0.15573781140759896 0.023492962566053762 -0.2011402210342686 0.11209805511385695 -0.048526979590098135 -0.074333257592777341 -0.134866439384035 -0.030511875377517438 0.09362372800058999 0.0097905584181909432 -0.11064569500912406 0.098968497563104593 -0.099167370794283657 -0.10882498411668481 0.13969389781918029 -0.10259232689720695 -0.018644086644353089 -0.061689752757170827 -0.12546596304605984 -0.02490556479364834 0.14868460982113635 0.083506826338042642 -0.0209369357260034 -0.072232253343682787 0.066889034501163458 -0.00012000285732811792 -0.0084001136707373553 0.035515577630688376 -0.02188023794386228 -0.14249905411859168 -0.07682527542848977 -0.090281146075280913 0.042385788701193278 0.07957452111996717 -0.15910323463621648 0.098763735502615121 0.082552940808532566 -0.019523075584006858 -0.056262286802651058 -0.19477840372202085 -0.034496905852783373 0.017906236136371632 -0.062495480380340036 0.11561340371246079 0.020618393171110947 -0.0083918087619167178 -0.0087492560592148591 -0.051519815487387599 0.15593430157976906 -0.0020157262842709564 0.17846979563659793 0.08155997389338876 -0.014731039934499316 0.090553237552988636 -0.18837256152785059 -0.06824483756391253 0.074377508121120012 0.0070008590641995189 -0.00025319096196596037 -0.1145404415792633 0.025659055852634262 -0.060207316698324007 -0.052590097290905274 0.046846161373074256 0.038130464203667017 -0.048131911636875545 -0.037755679916406215 -0.13906054426506231 0.053448727069167819 0.058573689412219437 -0.064263805509889527 -0.031437661019865747 0.0031935958498500901 -0.026258974512333812 -0.034672059759475203 0.061522145830582964 0.011263382921331389 -0.042103968827434141 0.065804787254339581 0.061383479656611895 -0.061325066163449557 -0.18677037406186833 0.076069950774203504 0.027426742669461192 0.083014790030749144 -0.22600771939020448 0.011044929385527362 -0.0052779711567363663 -0.0044403063325287873 0.022148272272950891 0.1619385039165569 0.063674271553921344 -0.034048097086302423 0.016673123441539508 0.095475618649423638 0.019013985302764984 0.15560651981393331 -0.011937887250223045 0.062111098052836877 0.12007407527405392 0.12871001592675177 0.064464196865783613 -0.05550269405287659 -0.075880851706596655 -0.064600978253923955 -0.014028126731722011;-0.18489368199526565 -0.60133682110223863 0.088363670442599795 -0.0058755649198762444 -0.40693168517431116 0.089194868053903795 0.12980462846956287 -0.15906282524500256 -0.19784269415619599 -0.20903133038646488 -0.2168769237733521 0.32826803947115718 -0.83044630803586805 0.20611541170365608 0.25119034279732277 0.022055585024633451 -0.044509671977527698 0.024818445035301867 -0.21496067087259152 -0.34883133886563139 0.19541564384491014 0.1309636654398055 -0.16621328822131809 -0.25805115593979788 -0.18646448043879016 -0.14398912971650929 -0.391338073522769 0.036579716550899796 0.028746419159367098 0.14922616249265458 0.066126658895564155 -0.045649785003222088 0.10979473711875784 0.21801541512563433 0.13438600228880315 0.45781166931611539 0.23365619223968395 0.22830037698316996 -0.57666875222589453 -0.026379412669497504 0.16122700464585815 0.10104670568503549 0.13302847813699697 0.34546732317518064 -0.2787911390912427 0.33971269021038653 0.19658563414252281 0.29060213691502379 -0.0033452931530502245 0.28633100633128272 0.12813726810653159 0.31169276368048848 0.037750410989749607 0.0019684536413361736 0.68168020268668017 0.026023285806419497 -0.11407550392074879 -0.0083461061680914078 -0.19300469987161373 -0.11490192457373324 -0.055298177012998384 -0.12349230307638004 -0.10292016904648724 -0.18940668330178848 -0.10204777410692092 -0.27092943017257287 -0.27741744554492237 0.094877631098789827 -0.20631471522258815 0.31711704934946916 0.26528762193678396 -0.99421984449084977 0.29047112602452896 0.98884387127390017 0.39906442494160488 -0.49878747139820051 -0.093420737231579759 -0.16908539306918791 -0.0024025066196830098 0.68069537809276315 -0.17156464563353097 -0.6954043566851893 -0.18523513491364918 0.035206175974760806 -0.40013560133789933 -0.3866611426143941 -0.13160360735614496 0.38174619320142689 -0.15139825210134511 0.34768863570131703 0.4577107125294545 -0.22971764972306258 0.19143062107499609 -0.15159082910843269 -0.068252587730986525 -0.13580798317658918 -0.047850359593640777 0.099823552932192305 -0.18628950099139732 0.22436393080052658 0.00040225317770410662 0.1138481864295295 0.2571954446437536 -0.054189581163574405 -0.28337829658085861 -0.069701820193554032 0.088295341024828777 -0.13289737777731117 0.14201074389406834 -0.042767419913699832 -0.044333130551105313 0.0067880398887438546 -0.040765578639151645 -0.03552591714785297 -0.013221376762845224 -0.26536807948235719 0.6276285892434712 0.33811471643413515 -0.12466042706750469 0.2119505348295084 0.10401791284627837 0.047246155838115741 -0.072897465649928009 0.23399497978693273 0.095556846872531936 0.078667318217945897 -0.015131180137259176 0.070758030117445192 0.067468020770288128 -0.031735605535028466 -0.053882752398364792 0.1759308548481256 0.10377714614800859 -0.045658137384419227 0.11608034968252681 -0.23115591241051595 -0.11998055808065161 -0.10721681074188007 -0.38531416308634436 0.066491896892273972 0.015321312009647568 0.14493341296526877 0.025379937189783736 -0.14893505553109992 0.054180215499917528 -0.091632676160737198 0.53030713712843158 0.22487558699897148 -0.11782760999669098 -0.026018465221144101 -0.30414128740654073 0.21067897042780082 -0.046454960070575452 0.096654954060727577 -0.1076735443094186 0.014260517279496301 -0.024887079798530519 0.10990593329499816 -0.14701850894758803 0.00083053707736610929 -0.18543302425672656 -0.007515516288818077 -0.25781589368887592 -0.1410984638830641 -0.015816411878708438 0.16322299428923609 0.14326778275535568 -0.096689842545995747 0.10308326210858007 -0.24134707833683383 0.036362460017350107 -0.23324448506856393 -0.0061679674887157032 -0.07022420504371199 0.19050974550384586 0.05099704021028699 -0.0053482226501738173 -0.046926480584003075 0.065845962299936445 0.16753438785471758 0.45129417303239749 -0.16626332719098186 -0.1561538328829411 -0.24683100361676674 0.21151514486132264 0.098911243902699814 0.02250150063541298 -0.10403818860622684 -0.20505477524452878 0.1787746013866971 0.30953880400213896 0.076556860820441608 -0.14475342679706063 -0.11498435774901944 0.015160261155036242 -0.0095285625102134695 0.052213511622669476 -0.13123028358994643 -0.051535239993734619 0.18094486951354527 0.14046674177316051 0.031744910327259845 0.0095300559621416189 0.29976902385721171 0.39608212948363142 0.009848290305246683 -0.080100814706855566 0.20161421709600452 -0.30678069925066209 0.18015943823832148 -0.039083918497822841 0.065339063809662756 0.096662673125128939 -0.20842676808849284 -0.2336656702026422 0.40428474182295915 -0.45026087306565304 -0.32444666494968549 0.23264140896881946 -0.062055160715226654 -0.056267218514207865 0.010572227927333672 -0.03227105109325562 0.2211197681304426 0.026303615021020507 0.066905787884558032 -0.044498295233443966 0.038137778774097159 0.1965635034488592 -0.093267502985049031 -0.37664596330559408 -0.037554863848554991 -0.0093909045497798105 0.071519083366296005 0.21753212011154546 -0.033853396768943583 0.037674647309929997 0.2647449995867065 -0.62719102761404399 0.19762072745435133 -0.015807222902409261 -0.12296557104058253 0.048287690096665579 -0.11381600521599677 0.16097434648410716 -0.22940892098296456 0.068300712091959523 0.53383051310937824 -0.17745211971334948 0.18875311081546883 -0.086555192093952446 0.027370980797822672 -0.21388621254611109 0.12328912427986757 0.33943673659649076 -0.14686778739614939 0.17121450676119485 -0.047563810824663544 -0.069794234143650574 -0.1133132686664361 0.46258834907374691 -0.32012359776999588 -0.13890349756199041 -0.3862023289734251 -0.41611638641478643 -0.025077164187063142 0.038825304461316823 0.13923309505473563 0.056949013607889419 0.15124790663566848 0.31132932970855298 0.030493179730281681 -0.43467970463202033 0.099095890754077945 -0.053398182033396878 0.56684904963391247 -0.14131443056776938 -0.14768087626026738 0.22422410431205519 -0.18715065509792445 -0.042096341971490286 -0.037625172616014307 -0.13501355348157559 0.37316987805920654 -0.27846133706906595 -0.37145781390038096 -0.31063991086184667 0.025455725238948665 0.12723723801299863 -0.11220031072652914 -0.18522735185955941 -0.1114494857000749 0.012267262060302368 0.11373827837569797 -0.13966731464524401 -0.096067915996085787 -0.35471356203171844 0.3536920200793765 -0.28869841753639475 0.029100180470751538;0.19090012542093504 0.15311890896984179 0.5879795699734679 0.042233069277994063 -0.43644848885868259 -0.15851975452310912 -0.0040941321586282914 -0.07184256659421813 -0.13522908477718096 0.097953323029692757 -0.052877277041238957 -0.18525931507122895 0.0050614039939454302 0.084233585767059305 0.090475740433802826 -0.30409364432131292 -0.013229659973922364 0.094223331978491143 -0.019120455350473166 -0.15772597264713928 0.25728623401194389 0.058062253035714738 0.17124639617540002 0.022338266633845 -0.18175073626723409 -0.010620924716699121 0.032994958593462818 -0.037902218952454346 0.28030815316473856 -0.059697966608573176 0.019883805958149856 -0.066150095368877865 -0.18948176655600327 0.18462072984465688 -0.29978832568855979 -0.14392271338205592 -0.089667747614661009 0.037748946829629065 -0.016901382256449757 0.11454975801456917 -0.11570924277355329 -0.1115200661196153 -0.029352455708637926 0.20984822443885098 -0.14279865081551743 0.27512173062274059 0.16084223329731601 0.14234109653449784 0.17759358883862003 -0.11546801134569078 0.039659058321096646 0.18432240301594871 0.02070963917770334 0.065253771876459254 0.079645791187407097 -0.24502055017635727 -0.0020846720657955314 0.12937945280017057 -0.053299760092660922 -0.16274403955015426 -0.17219420134614744 -0.11505380707940976 0.12110873558961725 0.020494436542082103 -0.1256685292374457 -0.02066353167331933 -0.35089830979897074 -0.19642518202584552 -0.20145100551625847 -0.018382737070628603 0.15726898503636227 -0.066790708063151266 0.32701016641171265 -0.27378716743401982 0.076275129562805966 0.35529498589269104 -0.051356671983086584 -0.22468232699165994 0.26612961047729539 -0.13177052304992762 -0.081532639885512181 -0.026859230183470074 0.04237436742970134 0.017315096401840688 -0.0056976610806767358 -0.19126178839231162 0.097248305576190769 0.24747142087117369 -0.060190504998185165 0.20304629914512887 -0.038584539896168751 -0.094252118738830756 0.12530870230019692 -0.06166044948411193 0.022166022312480854 0.12954427443562322 -0.16379139917205365 0.27376322480336923 0.21916001026075166 -0.17314147468470686 -0.018810059662887423 0.085287475331081747 -0.059090152593278052 -0.046207816461944301 0.055476410386241459 0.01988458028494737 -0.074773447152209918 0.033127673372741896 -0.047622275202202358 -0.062856145692434043 -0.012066407134645619 -0.14598603001698318 -0.052436553404439257 0.055743565125903019 0.016220397043477525 -0.19136687268828068 -0.0068471430590137834 0.12631912392348177 0.015211241997804645 -0.067460389395055512 0.10319410295670239 0.0054950318417343012 -0.10809864763068588 -0.051807936340877894 0.13133841534363128 -0.082072352985799374 -0.0018110870467125083 0.0067689392345381266 0.0055945139463968799 -0.050922777755579331 0.071762575456472077 0.13589973369054226 -0.0063969998706339959 -0.02651173570934276 0.027636832743102635 -0.14371936183715689 0.084628305599197456 -0.039331655626270973 -0.051060284516258408 -0.1599099692298141 0.068218488737272667 0.06173898252283417 0.05572639965113578 -0.080427093850725995 0.042392564305154951 0.19169138048041037 -0.032607198695194406 0.041247474508721689 -0.23537451413007363 -0.0016074393677385709 -0.084530137886012907 -0.023587749844554154 -0.00092267703154334454 0.19159651001015754 0.092428481209299584 -0.062607400036045216 -0.074961595824601157 0.01567856015688664 -0.11315861117787462 -0.081684987244371121 -0.035705688669585046 0.0041543900713928786 -0.014083201863632724 -0.039999366862685515 0.18399860001826282 -0.059652371619998784 -0.14987650875886582 -0.023363412004034481 -0.018499859673886371 0.0078256851058015886 0.10814017870392062 -0.012129362108257588 -0.037194489203627515 0.031100886578838936 -0.16080997487330928 -0.027076563572838136 0.028490247962716805 0.0066128933015842488 -0.13058817580167656 0.13912921297721706 0.14359908224084955 -0.056227925887560364 -0.1040920494793649 0.14294338994089414 -0.079337659394900062 -0.061934752807862828 0.11378502334790686 0.036677290376660621 0.022171975012108245 -0.20584026584022197 -0.046051374353629888 -0.083183523990584138 0.00043769792518351305 0.065388978830154376 0.013586998714263498 0.010870041659201204 0.062520254299106237 -0.1757672783081648 -0.0078888888949832196 0.026251549424654935 0.0077103801821191854 0.026782874320500843 0.055788296565158289 0.16399557089789571 0.07355561345244227 0.073640602546174161 -0.1424519759814746 0.087873237113106004 -0.061659971109196285 0.058198331591927638 0.039075580355821343 -0.16099952971592976 -0.16214400137346008 0.012659586848981642 0.10369234144774515 -0.10415293789107365 -0.012929317354348435 -0.16457121899724289 0.10522920111727323 -0.0070346655637340064 0.04244626374406283 -0.068019698035060749 -0.048134627526334253 -0.01790317394865417 0.10850567575888376 -0.11614990541720274 0.032692725028566266 0.058194564233721657 -0.064728785869783298 -0.047160680247106665 0.16248087511838874 -0.076715472390903969 0.20308090594141953 0.085802510665647758 0.11555404659402714 -0.2140883505978973 0.043501065493926537 -0.10680275617247877 0.032766816820993 -0.0060442031550457876 -0.041488784554161447 0.023547112871812714 0.056236332198580097 -0.033030697017905432 -0.014128515059337612 -0.010396383987914731 -0.0016149968278080205 -0.23766727874379817 0.020302804575448918 0.15228039527217505 -0.0083151045103575585 0.061286859739963236 0.16894195198549475 0.065621168983729522 -0.12224595985554425 -0.22457836443065798 -0.14366411035902996 0.041830879957870708 0.055458790095634633 -0.0052690010757047295 0.087818643912426469 0.13547039209337688 0.13713788165916019 0.020240284119550242 0.099514235291378414 -0.14630485370546847 -0.0068975588726329327 0.004134828395988395 0.041819177095190285 -0.078327929244709646 0.13789889903355163 -0.025857854440972036 -0.11543675947479522 0.0090444311577747641 -0.12791226558732949 0.073859493610949511 -0.080828702043181239 0.002982705968689825 0.039921039691854884 -0.035017441821767172 0.016810472160576941 -0.051557457179434656 0.047828332740657786 0.079424479149514629 0.024385778620439856 0.20465634524513079 0.094172315455112884 -0.02945591426025667 0.13574244410612352 0.023942161191884331 -0.14979628815195814 0.04336019386259924 -0.1341318713997931 -0.045926097111244679 0.056567647261880225 0.1233112534252904 0.10152230228887227 0.0064427547425630616 0.082128307796295069 0.11016140354132072];

% Layer 2
b2 = [1.2752791446450451;-0.78016266371844578;0.63008963460286305;-0.60706235545646969;-0.082038181548293343;0.153356082999764;-0.10675860252112163;0.026235951222011167;0.29572222268545312;0.055652027004332083;0.23514744680700267;0.72793732968612945;-0.37062854310254989;0.056318314725728902;-0.19854848003253522;0.91613279896375988;0.31373740760327912;-0.014443974586602293;-0.37309834907514083;-0.059096900480856834;0.25202371145473801;0.0071068028916487225;-0.36693527056067421;-0.14096226325894712;-0.47489531710688215;-0.8665680066448076;0.82962145745514504;-1.0240746490461721;-0.6448074497378824;1.0123462611213649;-1.4522459461779822;-0.59739452342813482;-0.31724855862147916;0.14052872815779133;-0.24211173662894875;-0.59598306999121342;0.21301937323346015;-0.56997393623361414;0.29071301583000619;-0.64609271098988186;0.12806642788073452;-0.9287859523182761;-0.29550550038891266;-0.32593035134475756;-0.88786258293441489;-1.2841592335950653;0.097171603286805408;0.16478748008187727;-1.0245068384073182;0.35525705897973225;0.19310394495487659;-0.36891652595888302;0.099880738331521446;0.095329465767023336;0.33304836773075269;-0.12657588677696388;0.12090172849461506;-0.11497948990328488;-0.19293345257252448;0.3484300461348882;-0.57537680502053257;0.66498909983120436;1.3411060745943604;0.3713803656310859;0.052799868260688387;0.43299228621986574;0.077554825035225455;-0.46054495519112537;0.29411122848758853;0.13509340851908103;-0.44774650852444076;0.61791423982765603;-0.91543986283956724;1.0069173971924814;-0.57447474499676399;0.11362207249169465;0.57347782462252439;-1.2286356220711476;0.12340911609987626;0.081870424825660371;-0.087623717025858749;-0.28771625473079299;-0.71032080579174206;0.43145914478380293;0.6449844955872055;-0.7737096096232885;-0.089960095484819744;-0.97301754973239907;-0.013050097846503517;0.21090321197989198;-0.57858775138931218;-0.4220913414037864;-0.85081508950012297;-1.332785031831409;-1.2784325885569856;0.86003974556820262;-0.020828009011114368;-0.85464680452395569;0.59493731888900725;0.70958887951080785];
LW2_1 = [0.011579897806487771 1.4043244052132839 -0.058508039282830687 0.72438750292513476 -0.7203140186774496 -0.39619909291618055 -0.35692937737346586 -1.0101359522541011 0.082300829810168397 -0.31184442027551917;-0.0037446263285931397 -1.4433806944367937 0.39849165098721595 -9.4006699486601231e-05 0.91266732163617303 -0.16275826022320455 0.42399722403661633 -0.67950151639415379 -0.16577207533064281 -0.020645689726735555;-0.063516969913322785 0.36476573734053708 -0.47808526275514279 -0.56689994254958065 0.31557618014516803 -0.75200740746757255 0.16498165045292001 -1.2305174283958016 0.072907478197657846 0.35401029109572918;1.112587911537315 0.86108947219107668 0.61265868684136215 0.67376035153370395 1.1075620265953523 0.21728766688353163 -1.4548221370524996 -0.31111533041938744 -0.22745681129492668 0.29527996431040993;0.42079880107871803 -0.45771124918018069 0.38237039297226788 0.85324415066789161 1.3004413841469875 0.37390220056216833 0.13291998812649441 -1.6866713033094287 -0.13473986459183873 -0.65999191383195144;0.95451908200627511 1.2260725707361337 0.1819831227956637 -0.045543181675908595 0.74698303339997629 -0.13554454930951745 0.40779855963069306 -0.2166538764416103 0.072044319685231339 0.46584958643461005;1.2650734300572637 0.40401097858468182 -0.53712252104410974 0.20633661721040913 -0.55325726497163163 -0.46213433386714348 -1.3702404572262643 -1.1340013147712165 0.57618372392014772 -0.32143580681552003;1.3233154105787965 0.98119770644520599 0.45443390069567302 0.17502810995937473 0.56444656316813058 0.18352268326513993 0.54643512803230165 -0.010384131063247704 -0.019816698428577112 0.20393729177418982;0.84222285512439865 0.77520946725109785 0.090227396870257964 -0.089492412001763111 -0.44678817928760761 -0.65864084400914591 0.45676314721138589 0.074652138313505534 -0.17856553297569225 -0.41077367046214197;0.66967631650513759 0.55432750196316105 0.49232782660461449 0.17801029490249198 0.0752096442178809 -0.81221067030041416 0.16393719274996876 0.44639591973419823 -0.13286135876012645 0.13147585884997753;0.30199543078298097 0.31729699656274157 -0.66276552364400043 -0.45148963713475576 0.29622016299113707 -0.36661037236777172 -0.17664777184149072 -1.8529430322420473 0.1310770013493715 -0.28203244719243087;0.70863285905465079 1.0326887419442088 -1.0669933754599938 -0.44093567315900739 0.56283895718949584 0.0031332317426911171 0.8112894983176655 -1.184085405903512 0.14269645197762426 0.51081099464659507;1.0848702549667328 -0.27276912534611247 0.84311222046725198 -0.10530767578002403 0.68729357759057663 -1.2750187325444102 0.3555973588252207 0.60934772229311918 0.010705730137962735 -0.075410818470044383;0.78371167224627314 -0.13153685701787199 -0.90828167131922322 0.14569115937528798 0.28905210009373433 -1.1888315933831142 -0.028634636520636358 -0.078229036853153078 0.088764583931976559 0.17004475103886951;0.33682134035716055 -0.36795969728946382 -0.56398552495255216 0.19950952028270108 -0.46852343251615258 1.0671732168931947 -0.20194015555712541 -1.2335853476931282 0.30609087346309383 0.52811694327127912;-0.079985111888826732 0.92900647399931091 -0.34122930382127725 0.91829241483082003 -0.74150634087771539 -0.95508118502017159 -0.77862115728939729 -0.92034230923379767 0.33024332155513186 -0.35355274792030877;0.57011752945334304 0.77365008839369254 -0.22509475119284325 -0.14203707619581871 -1.1730593109473488 -0.61354237782150345 0.16366093957575117 0.087952761525687914 -0.12207317914926469 -0.34813130263548236;0.62043476507255801 1.0082342783121452 -0.35075165771309175 -0.17638920992587762 0.075912943164042845 -0.16083203024160386 0.43933565992701873 0.171119146257526 -0.084294357218346105 0.64737502920200107;0.39018394586716626 -0.85548622568079169 0.37215361022423088 0.52875052750878537 -0.58044637285348888 0.59888675976105377 0.016753760823349406 -0.26001969536541769 0.12237773097770582 0.31262134123710172;0.28841748458902738 -0.55539562482952443 -0.3554298543137413 0.25425837576406712 -1.0565619463629685 -0.56215633065149972 -0.027902643230869509 0.12134723831834238 0.064032271256170392 -0.016583717679289234;0.057603164036686971 0.12506397945476205 0.26747823775718665 -0.28396732515467921 0.73075828601847681 0.14918819201776376 0.34784945531181555 -1.1820846806102823 -0.09441038504189958 0.48329196873120273;0.022560523299101798 0.94086657603830892 0.37280005806819916 -0.40720446933122656 -0.31865797782158073 -1.7638539996987863 -1.6036623437953634 -0.56716890433603839 0.30942937032963586 -0.14145019447113258;0.46789909553103504 -0.1361648189302247 0.52322931125125494 -0.87205968574967752 0.53632394690557683 -0.50275957487837308 0.23438062909978966 -0.013694805626746298 -0.17745862381479277 0.72041274127474986;0.2340782637212761 -0.50358300620557506 0.20368400786729646 0.38410613447959213 -0.4841717870825375 0.34211773384299382 0.38242807471341522 -0.38528194557403539 0.10953361010845183 0.1756295846737147;-0.33501538499256256 -0.5521937739979792 -0.09245069299073097 -0.033690905493519524 0.25169332520043947 -0.16529496008052663 0.0041756215543812814 -0.46298580472010087 -0.044793530187713315 0.49232213439354328;0.63123817524392856 -1.1980145618858726 -0.010974381900372655 -1.2335826008777533 0.96035828735293993 -0.0094905351935901661 0.73300806438455701 -0.85942444975597776 -0.11488826376177452 0.32313346312909286;-0.6016888296772771 -0.053221185017040776 -0.2733405651177887 0.90659493018486126 -0.04201095125413884 -1.7635935726947878 -0.14193881133117917 -0.29741531049844588 0.18611383506576223 -0.036647451120746757;1.0133508841479884 -1.274259357882731 0.29981386815389904 0.10990785020374783 -0.20145801775763678 0.62819376824340789 0.39983734905791118 -0.036756739942829075 0.34393518935547573 0.50141195873529032;0.51177561863555809 -1.2582389147098216 -0.20513828289507996 0.44768214364628844 0.64642161596236503 -0.60373868854449031 1.0066849799382906 1.1623289541780601 -0.42765890942756118 0.55012199131816164;-0.81298742077427844 0.82213295835930777 0.28134445308424993 -0.31770760448122431 -0.45632679621559147 -1.6946793713099968 -0.72963264521467974 -0.85599846554082415 0.2726402400963916 0.19049536985406848;0.8132899759704949 -0.92578818794338191 1.5796736968870984 -1.2687016417458947 1.3444022305740042 -0.36320707234483574 -0.53790652183086496 -0.26912985176184934 -0.17930046429769708 0.60276485484624964;-0.088699927294562997 -1.1964690846158561 0.20610345247966275 1.0211784193029136 0.82434649220135769 0.28629653566578317 0.39513920988615836 -0.77449303183914908 -0.29074416393235814 -0.41208482056927331;0.64120811080069018 -0.38009765117646238 0.99546833075977004 1.3836893737500622 1.7451012351014585 1.2182666198294991 0.71697061477097779 -1.0732066257757165 -0.23377444299455685 -0.45880856189366592;0.71718327685927163 0.68240292752851617 0.51377920900097229 -0.16969438977973025 -0.55958573261141986 -0.50576028937991602 0.43899805018859628 0.3261680264908039 -0.24217349370310814 -0.11386266404502984;-0.27625808724118001 -0.97348613102953219 -0.14807392530418328 1.6028003325557578 0.72257930694975947 0.26077149873231564 0.52862889979475514 -0.73981534443447006 -0.39081805982278883 -0.73182759058406699;1.81315685705286 -0.84588009445021017 -0.012977126193961547 0.22664969363981669 0.67864875469679675 -0.2026945862068314 0.10091736868170939 -0.48635391454398652 0.57881465337657056 -0.010740294624788677;0.92426441132587933 1.2581816879886307 0.24580913404599269 0.41910853498139911 0.43785226935186949 0.41740062783598647 0.50380655329758195 -0.17328612128309789 -0.078600065785048689 0.25235964239659425;0.26661948163417731 -1.0190037741566134 0.45274287985225264 0.10654014864040404 -0.67798481756333739 -0.20484795305468897 -0.052577022933122761 -0.089523856204290403 0.22715890291393964 0.053876746784296353;0.81490407224739303 0.91915143612820116 -0.058335354665861677 -0.055140836330793475 -0.27649675208888697 -0.82494102630789623 0.47819466646719788 0.25759408018401669 0.0016636620467846419 -0.0030440454220877766;-0.42680155641206929 -1.36141021070407 -0.29569201902123321 -0.82652997063653 0.35784700114017109 -0.85715893016187372 0.14668568111193048 -0.58305977410171494 -0.16117922809087876 0.30077846540507869;0.43008345987857033 0.50967026135911386 -0.30059457266495115 -1.8339348479582278 0.18984940877359707 -0.83833408987994207 0.082205507079696288 -1.4972445998217221 0.18503637280599741 0.17791092118784349;1.4274355296299335 -0.029235138648835091 -1.1984380162298895 1.1206554653762433 0.48455333606599427 -0.15758541834887524 -1.8923213815123368 -0.6590493132254871 0.37485558801181029 -0.16608824817621759;0.64704785591340608 -0.4941566705264715 -0.2516739485153347 -0.32358810059757648 -0.55464455647831645 -0.059377414877556219 0.91254921181299931 -0.11754070661145616 0.079606798320542224 -0.1848203544624861;0.50941792846470557 -0.80344169284372102 -0.12138702811941297 1.0336345248021517 -0.31607070524933384 -0.35827180023750205 -0.028068565266295364 0.47931886431251092 0.083474385703657519 0.18638837123720153;-0.39491502689497526 -0.54551111131124752 -0.021705195878983896 -0.25944614861609322 -0.05718105363617626 -0.40603706202577772 0.42693392773687866 -0.1967296451541348 -0.17412613586147607 -0.23370131425421214;0.42308661709065104 -1.3763374713906045 0.76729028992847437 0.47330259518553458 -0.35195053305803603 -1.0942916012778832 -1.3015370528637664 0.7306593830257111 0.27274795947852093 0.42844057229531535;0.45460734627391075 0.57442625700444627 -0.026245534060990255 0.7842201054040161 0.48936251126810321 0.40638630397072784 0.36543246054719847 0.060826919324697033 -0.13960697398667771 0.74688613347854149;0.26702945804586986 0.29365157813300419 0.46678642555481603 0.50627054462207455 -0.54120796122057557 -0.6077484086172309 0.29499699087741404 0.59623947957947876 -0.32433521681906785 -0.1390724414829097;0.43620377977863967 -1.586391804648803 -0.10921894867997439 1.0908653816302778 0.43737712987508326 -1.0443801781662712 -1.3861612938592209 0.14310531142913296 0.34833676461707708 0.41481930366967135;-0.10395364745265914 0.46975174349450532 -0.17025165826571773 0.21114688842078644 0.43929887306851079 0.62657246367758113 -0.1532848986331582 -1.6648996522586479 -0.16559646579367876 0.19526154989982808;0.70920407896018012 0.6270463283278187 -0.30945453858966432 0.038141366999938073 -0.79824394112249619 -0.051657196891007257 0.43466120908620914 0.16297487965983015 -0.19462268236717922 -0.10572247837064874;-0.56214328485735843 0.964494520760242 0.43727286119120623 -0.10392837663468618 -0.29982098726626122 -0.28923788756874685 -0.7323196719814592 -0.21717185573188227 0.14540683714660474 0.68465557885022965;-0.03701127973003937 1.8564234797216184 -0.90957342139738784 0.89451303408506644 -0.70217308968629566 0.8041438513939676 -1.0276214333255667 0.18219057211026196 -0.36104014617439817 0.50663916221731098;0.14410381191097615 0.68983996038791939 -0.41295407492030611 0.018166444101163859 0.14980958549291951 -0.0089236163149915559 -0.18113496767280521 -0.78731961312442622 0.13025672955047696 0.5559497337179522;0.97152500825214883 1.369215337753293 -0.1589905657841072 0.50358809534518489 0.33626532761120792 0.27477437857451414 0.31064940939360153 -0.20775598563546618 -0.041006820109610154 0.30039049594682143;-0.23160521852618748 0.13358734763021166 0.0049463799667517072 0.41514265013028484 -1.7738830302982846 0.1527207655676393 -1.6575051223321233 -0.87101449265472886 0.27540297861615354 0.094117518891873406;-0.20575536628960056 -0.46117895062378123 0.53621759219770992 -0.17693632687401317 0.68685712904625995 -1.5682645929815531 -0.22429003516130183 -0.28508354937007835 0.33770689993346564 0.63336944538271989;1.4033044012767164 -0.54558589681516967 -0.13246304616808896 -0.27619913765531201 0.24038676413152957 -0.89402718134692016 0.66687561667627782 -0.21928756216405088 0.33672177663080022 -0.29863582792910187;0.9761551981059402 0.32459670155436054 0.91501217600244988 -0.54496372843757623 -0.13645314666232145 -0.92001821640274617 0.39070107205911536 0.69517181017221696 -0.04928498086723565 0.15997258951938514;-0.14672545455349484 1.3970923419675181 -0.52916297918128397 -0.28135909381367868 -0.25881390857767372 0.17822671860666378 -0.61372005367020166 -1.5763492853777152 0.34603398244080213 0.4403691294612011;0.59286224764760331 -1.5533453591266531 1.1057168889209292 1.2252092869042621 1.8861560088077076 0.32026909764314249 1.2123654674549762 -0.63292409633996072 -0.36987052749320465 -0.58333085748193225;0.26637001828398849 0.94369168523138824 -0.29173255832224843 0.010155322409630907 -1.1054002114182304 -0.80318301323142283 0.023932839279668772 -0.2389387961652748 0.20902836541571451 -0.14909037646092244;-0.1748935383439838 1.5340209122020318 -0.25062861541311932 1.0073515047599797 -0.5539563993982779 -0.23300584706212918 0.0081203587354433671 -0.82605715969608418 -0.06721513675334001 -0.2755621102329282;0.12846064528216686 1.3091218172721415 0.010811188224806756 0.41682852044275553 0.29770568343099124 0.36822094231266084 0.52704542388492603 -0.2572087997891358 -0.10462484868089827 0.4110728854173733;0.5408920638562752 0.27851849274259372 -0.55275416060430194 0.31854692145306601 0.3029259244024346 -0.65874051351942686 0.16591701694983607 0.028326717696114612 -0.075049924788317984 0.32044421934723455;0.08410733559204675 1.5108517959268717 0.44408976976150499 -0.21754849312557084 -0.016817853843820695 0.30813825436935438 -0.86841846220333729 -2.1741307712171993 0.13287510990486284 -0.34888855060005691;-0.0080769049869009873 0.35498534722582492 0.10643952950093183 -0.44918458890185919 0.36895338074011674 0.40182881993345393 -0.60320387748490356 -1.8088314169921864 -0.045044000561443032 0.32295931054579691;0.58498156507993282 -0.21738886108493027 -0.57214959502722285 -0.06094932995605723 -0.23766737251394152 0.98361601814970412 0.65153684834849035 -0.68140925447857514 0.2148397722785888 0.35040253552190509;1.5300911489896354 1.5504394790333187 -0.25953838728399969 -0.40904737104569672 0.48855255540188536 -0.5178508712363159 0.29018843003857259 -0.51586802210313032 0.23582132320098231 0.038360195603826086;0.41118858899919303 0.34390521383239836 -0.15510978197827152 0.41587071799856151 -0.82070702597416678 -0.81812314827456234 -0.8712313453388576 -0.25759695205805644 0.35707166270023993 -0.075189939535893785;0.66243722078589751 -0.96334998149955364 0.66489008445377684 0.48699065707691469 0.94699780209156692 -1.5420215665872701 0.1118120262996163 0.011164331575110773 0.45696107529862362 -0.086496037215194582;-0.50564533020578017 -0.099896803171806603 -0.22585540680603283 -0.012321517794836534 0.1570712172806914 -2.1394895476021576 0.11949363550382597 -0.39758942556277782 0.26428775107010116 0.046191203700585368;-0.11540029656706188 -1.3219629151718451 -0.10708120528858833 -0.43490575009188348 0.38455491870626124 -0.31930918256228835 0.25101231018320314 -0.58384130789940258 -0.21766216368681254 -0.020528933277470296;-0.50457040610384729 0.72076256467757993 -0.22175710064219822 -0.20448217833171584 -0.21555309714339665 -1.8292207294900318 -0.62937795133670149 -1.0591020823053998 0.28709211551365676 0.0460154243103921;1.0191058978748175 -1.1076823459695657 0.15941321232603803 -0.12073583254621448 0.073474549566995284 -0.58331753957262777 1.3276206378184048 0.49726919245294932 0.16731333070313464 -0.09452276717649738;0.65703517297082281 0.022561589519545455 -0.050863466822310799 -0.54128224082746201 0.88737770296287122 0.38494106149894391 0.54722882512674176 -1.6387328070147105 -0.046357546296854069 0.15068155906933495;0.60549864519913621 1.2363376213445927 -0.76640855813563014 -0.64151125828231614 -0.14766094256308276 0.0025126761820574162 -0.70644690824353873 -1.0477805172436321 -0.10725040751496417 0.5549725925910719;1.0145663141919821 -1.5962832915076588 0.78610232904578403 -0.21060915828068144 0.84875222681025753 -1.0527954844133502 0.59232611711894667 1.6525462157224537 -0.16523129875525805 0.66673311979247674;1.1498559622246094 1.1607934976920526 -0.96119250257536504 -0.76335331260325356 -0.063982002022638707 -0.42832313894360097 -0.00030811834044205955 -0.35617132969355869 0.048459114955265226 0.38120953080370756;0.16558351176188332 0.42020864119763623 0.11363956220057322 -0.65547444261586008 0.20815872276174038 -0.45944753949222128 -0.036930835807605034 -1.399869486451967 0.1480471807561286 -0.072358666259500909;0.17769846994197369 -0.3462377166492514 -0.25747003466404483 -0.057513851462935132 -1.0741763405193336 -0.47611382214870568 -0.71305487374919585 -0.69077102455950512 0.36439854990994686 -0.091050995293352102;-0.25770130207188574 -1.3769959767395972 -0.25654228479246377 0.43189238504142391 0.78225266678123861 -0.085083882045325632 0.15594421519392321 -1.2151122497642675 -0.1785071446025594 -0.035015888803286488;0.91069726165760201 -1.4103459067280582 0.23739091178071603 0.58667969231746242 -0.18719829957959999 0.14359856721690104 0.70196619290560791 0.48727157013080014 0.18123107040366865 0.3089138679770666;-0.84702841212348812 -0.39086134766608255 0.34332999094959638 0.17403648649931558 0.013731996190216034 -1.7911534755103944 -0.33402053328076231 -0.13272839727300056 0.12542332936142289 0.33712076693053022;-0.27573261831533713 1.0675239629795343 -0.92756066151758088 0.4382295446053126 -0.33862083594199599 0.070755303849612303 -0.58287063140897222 -1.7483422220296123 0.18844510867313705 -0.017327256015694792;1.3886250911656497 -0.83263056524283896 -0.12333815104568513 -0.23770521597874378 0.78558772323920956 -0.25292763496240167 0.51992588914888871 1.0294910714038314 -0.49478422495886581 0.61962374360753447;-0.37747563808549556 -0.57188325707163434 0.40026729145961509 0.5774844766589704 -0.93159910797538958 0.95932923199487297 -0.69560531055531072 -0.80562590642084719 0.15227405981322611 0.70004852420205221;-0.23813318083583657 -1.0932273341452867 0.43455118063051851 -0.2288660736198746 0.24178489691530652 0.062125533536837835 0.54949218867105842 -0.40860395160204777 -0.42050478727092111 -0.28617126047637409;0.49703039895662127 0.879737870463004 0.89794050703386652 -0.23513586485808624 -0.46037055466829208 -0.28440554819367381 0.21035127655315167 0.48556936857608901 -0.23126675681416964 0.2031042786573693;0.7822479492352985 0.33859691485739374 -0.40176011681509294 -0.60729611431557007 0.6499253366476696 0.44845967286644745 0.29169330773237578 -1.1294230955561486 -0.099157573194136039 0.72227576630197388;1.4351273261902506 -1.2139790865435944 0.37436429691937956 0.27918390128684173 0.51179443390669366 0.5098890711627696 0.92993496412940135 -0.13802479003270621 0.26037952298191069 0.22480789219117339;1.1807054344574435 1.3231165424584794 0.67258649019593986 0.075699077040594309 0.84375316302091941 0.16795207489426756 -1.7028067446732571 -0.64695133623870515 -0.18937849108151916 0.34026370345271445;-0.28378490371030035 -1.683630489746228 0.11754425437790773 -0.14623463156438588 -0.78013370567472018 0.81969719330579949 0.47393706432424343 0.053217164920076138 -0.062673764853427488 0.79640520615834975;0.3868480596002668 -0.49352381378646237 0.6538004643724451 -0.66915459103576125 -0.79275076296508817 1.2962452300874894 -0.57792627893671566 -0.047366817398479422 -0.15787586501252288 0.85542788399224334;0.34235477015736709 -1.3474332356349021 0.37753847602892115 -0.027361556658797637 -0.28641651153751224 -1.5286472764671573 -1.4069203906455887 0.45828787124507614 0.49675733355184787 0.5576633091698755;-0.61825833548867015 1.2400885088272142 -0.38178813060347333 1.3878086529700133 -0.73323307157081385 0.080686553398829519 0.19309684102782826 -0.3730034520941285 -0.16142622605621859 -0.10960185238786918;1.0389042533332553 0.66166597082838452 0.32198047013212894 -0.21291212878421684 -0.51840171267437862 -0.17130687995031924 -0.69383397561798743 -0.1003078605018069 0.018019530854644417 0.26022582059184068;-0.092907905461395074 -1.5666718934302488 0.2210950951071014 -0.72432914449839803 0.64276301686410142 -0.50686070538580918 0.17789069968752436 -0.57682966244907496 -0.21266504085019233 0.24997127814328229;0.09120336031541687 0.058981653689720248 0.35066249866546328 0.60788741467315421 0.59338634363271836 -0.58951039837580788 0.80901233981885046 0.03765774045992093 0.066823267408785636 0.52566094322040957;0.57199017479161574 0.94024796222456142 0.38117572920898102 1.289910176991474 1.3528050835607321 0.82265517981500713 0.049627401591161968 -2.1953697770348697 -0.073282023892548231 -0.71148546992822281];

% Output 1
y1_step1.ymin = -1;
y1_step1.gain = [2;2;2;2;2;2;2;2.00787401574803;2;2;2;2;2;2;2;2;2.00787401574803;2;2;2;2;2;2;2;2;2;2;2;2;2;2.00787401574803;2;2;2.00787401574803;2;2;2;2.00787401574803;2;2;2;2;2;2;2;2;2.00787401574803;2;2;2;2;2.00787401574803;2;2;2;2;2;2;2;2;2;2;2;2;2;2.00787401574803;2;2.00787401574803;2;2.00787401574803;2;2;2;2;2;2.00787401574803;2;2;2;2;2;2;2;2;2;2;2;2;2;2;2;2;2;2.00787401574803;2;2;2;2;2;2];
y1_step1.xoffset = [0;0;0;0;0;0;0;0;0;0;0;0;0;0;0;0;0;0;0;0;0;0;0;0;0;0;0;0;0;0;0;0;0;0;0;0;0;0;0;0;0;0;0;0;0;0;0;0;0;0;0;0;0;0;0;0;0;0;0;0;0;0;0;0;0;0;0;0;0;0;0;0;0;0;0;0;0;0;0;0;0;0;0;0;0;0;0;0;0;0;0;0;0;0;0;0;0;0;0;0];

% ===== SIMULATION ========

% Format Input Arguments
isCellX = iscell(X);
if ~isCellX, X = {X}; end;

% Dimensions
TS = size(X,2); % timesteps
if ~isempty(X)
    Q = size(X{1},1); % samples/series
else
    Q = 0;
end

% Allocate Outputs
Y = cell(1,TS);

% Time loop
for ts=1:TS
    
    % Input 1
    X{1,ts} = X{1,ts}';
    Xp1 = mapminmax_apply(X{1,ts},x1_step1);
    
    % Layer 1
    a1 = tansig_apply(repmat(b1,1,Q) + IW1_1*Xp1);
    
    % Layer 2
    a2 = repmat(b2,1,Q) + LW2_1*a1;
    
    % Output 1
    Y{1,ts} = mapminmax_reverse(a2,y1_step1);
    Y{1,ts} = Y{1,ts}';
end

% Final Delay States
Xf = cell(1,0);
Af = cell(2,0);

% Format Output Arguments
if ~isCellX, Y = cell2mat(Y); end
end

% ===== MODULE FUNCTIONS ========

% Map Minimum and Maximum Input Processing Function
function y = mapminmax_apply(x,settings)
y = bsxfun(@minus,x,settings.xoffset);
y = bsxfun(@times,y,settings.gain);
y = bsxfun(@plus,y,settings.ymin);
end

% Sigmoid Symmetric Transfer Function
function a = tansig_apply(n,~)
a = 2 ./ (1 + exp(-2*n)) - 1;
end

% Map Minimum and Maximum Output Reverse-Processing Function
function x = mapminmax_reverse(y,settings)
x = bsxfun(@minus,y,settings.ymin);
x = bsxfun(@rdivide,x,settings.gain);
x = bsxfun(@plus,x,settings.xoffset);
end
