function [y1] = neural_net_function(x1)
%MYNEURALNETWORKFUNCTION neural network simulation function.
%
% Generated by Neural Network Toolbox function genFunction, 20-Mar-2017 16:57:16.
%
% [y1] = myNeuralNetworkFunction(x1) takes these arguments:
%   x = 784xQ matrix, input #1
% and returns:
%   y = 1xQ matrix, output #1
% where Q is the number of samples.

%#ok<*RPMT0>

% ===== NEURAL NETWORK CONSTANTS =====

% Input 1
x1_step1.keep = [100 101 102 105 106 107 108 119 120 121 122 123 124 125 128 129 130 131 132 133 134 135 136 146 147 148 149 150 151 152 153 154 155 156 157 158 159 160 161 162 163 164 165 173 174 175 176 177 178 179 180 181 182 183 184 185 186 187 188 189 190 191 192 193 194 201 202 203 204 205 206 207 208 209 210 211 212 213 214 215 216 217 218 219 220 221 222 229 230 231 232 233 234 235 236 237 238 239 240 241 242 243 244 245 246 247 248 249 250 256 257 258 259 260 261 262 263 264 265 266 267 268 269 270 271 272 273 274 275 276 277 278 284 285 286 287 288 289 290 291 292 293 294 295 296 297 298 299 300 301 302 303 304 305 306 307 312 313 314 315 316 317 318 319 320 321 322 323 324 325 326 327 328 329 330 331 332 333 334 335 340 341 342 343 344 345 346 347 348 349 350 351 352 353 354 355 356 357 358 359 360 361 362 363 368 369 370 371 372 373 374 375 376 377 378 379 380 381 382 383 384 385 386 387 388 389 390 391 396 397 398 399 400 401 402 403 404 405 406 407 408 409 410 411 412 413 414 415 416 417 418 424 425 426 427 428 429 430 431 432 433 434 435 436 437 438 439 440 441 442 443 444 445 446 452 453 454 455 456 457 458 459 460 461 462 463 464 465 466 467 468 469 470 471 472 473 474 480 481 482 483 484 485 486 487 488 489 490 491 492 493 494 495 496 497 498 499 500 501 502 503 508 509 510 511 512 513 514 515 516 517 518 519 520 521 522 523 524 525 526 527 528 529 530 531 536 537 538 539 540 541 542 543 544 545 546 547 548 549 550 551 552 553 554 555 556 557 558 559 564 565 566 567 568 569 570 571 572 573 574 575 576 577 578 579 580 581 582 583 584 585 586 587 592 593 594 595 596 597 598 599 600 601 602 603 604 605 606 607 608 609 610 611 612 613 620 621 622 623 624 625 626 627 628 629 630 631 632 633 634 635 636 637 638 639 640 648 649 650 651 652 653 654 655 656 657 658 659 660 661 662 663 664 665 666 676 677 678 679 680 681 682 683 684 685 687 688 689 690 691 692 693 705 706 707 708 709 710 711 712 734 735 736 737 738 739 740 766];
x1_step2.xoffset = [0;0;0;0;0;0;0;0;0;0;0;0;0;0;0;0;0;0;0;0;0;0;0;0;0;0;0;0;0;0;0;0;0;0;0;0;0;0;0;0;0;0;0;0;0;0;0;0;0;0;0;0;0;0;0;0;0;0;0;0;0;0;0;0;0;0;0;0;0;0;0;0;0;0;0;0;0;0;0;0;0;0;0;0;0;0;0;0;0;0;0;0;0;0;0;0;0;0;0;0;0;0;0;0;0;0;0;0;0;0;0;0;0;0;0;0;0;0;0;0;0;0;0;0;0;0;0;0;0;0;0;0;0;0;0;0;0;0;0;0;0;0;0;0;0;0;0;0;0;0;0;0;0;0;0;0;0;0;0;0;0;0;0;0;0;0;0;0;0;0;0;0;0;0;0;0;0;0;0;0;0;0;0;0;0;0;0;0;0;0;0;0;0;0;0;0;0;0;0;0;0;0;0;0;0;0;0;0;0;0;0;0;0;0;0;0;0;0;0;0;0;0;0;0;0;0;0;0;0;0;0;0;0;0;0;0;0;0;0;0;0;0;0;0;0;0;0;0;0;0;0;0;0;0;0;0;0;0;0;0;0;0;0;0;0;0;0;0;0;0;0;0;0;0;0;0;0;0;0;0;0;0;0;0;0;0;0;0;0;0;0;0;0;0;0;0;0;0;0;0;0;0;0;0;0;0;0;0;0;0;0;0;0;0;0;0;0;0;0;0;0;0;0;0;0;0;0;0;0;0;0;0;0;0;0;0;0;0;0;0;0;0;0;0;0;0;0;0;0;0;0;0;0;0;0;0;0;0;0;0;0;0;0;0;0;0;0;0;0;0;0;0;0;0;0;0;0;0;0;0;0;0;0;0;0;0;0;0;0;0;0;0;0;0;0;0;0;0;0;0;0;0;0;0;0;0;0;0;0;0;0;0;0;0;0;0;0;0;0;0;0;0;0;0;0;0;0;0;0;0;0;0;0;0;0;0;0;0;0;0;0;0;0;0;0;0;0;0;0;0;0;0;0;0;0;0;0;0;0;0;0;0;0;0;0;0;0;0;0;0;0;0;0;0;0;0;0;0;0;0;0;0;0;0;0;0;0;0];
x1_step2.gain = [3.77777777777778;2.28699551569507;4.67889908256881;51;39.2307692307692;39.2307692307692;39.2307692307692;30;127.5;7.96875;2;2;2;7.96875;2.58883248730964;2.00787401574803;2.83333333333333;2;2.01581027667984;2.42857142857143;2.02380952380952;2.02380952380952;2.02380952380952;56.6666666666667;2.35023041474654;2.08163265306122;2;2;2;2;2;2.00787401574803;2.36111111111111;3.26923076923077;2;2.40566037735849;2;2;2;2;2;2.00790513833992;508;72.5714285714286;3.56643356643357;2.01581027667984;2;2;2;2;2;2;2;2.01581027667984;2.00787401574803;2;2;2;2;2;2;2;2.00790513833992;2.17948717948718;5.77272727272727;12.4390243902439;2.09876543209877;2.00787401574803;2;2;2.01581027667984;2.00787401574803;2;2;2;2;2;2;2.00787401574803;2;2;2;2;2;2;2;2.00790513833992;46.3636363636364;2.77173913043478;2;2;2;2;2.00787401574803;2;2;2;2;2;2.00787401574803;2.00787401574803;2;2;2;2;2;2;2.00790513833992;2.00790513833992;42.5;2.40566037735849;2.00787401574803;2;2;2;2;2;2;2;2;2;2;2.00787401574803;2;2;2;2;2;2;2;2.00790513833992;2.00790513833992;3;2;2;2.00787401574803;2;2;2;2;2;2;2;2;2;2;2;2;2;2;2;2;2;2;2.00787401574803;15.9375;2.00787401574803;2.01581027667984;2;2;2;2;2;2;2;2;2;2;2;2;2;2;2;2;2;2;2;2;2.00787401574803;3.35526315789474;2;2;2;2;2;2;2;2;2;2;2;2;2;2;2;2;2;2;2;2;2;2;2.01581027667984;3.984375;2.40566037735849;2;2;2;2;2;2;2;2;2;2;2;2;2;2;2;2;2;2;2;2;2;2.01581027667984;8.09523809523809;3.89312977099237;2;2;2;2;2;2;2;2;2;2;2;2;2;2;2;2;2;2;2;2;2;2.01581027667984;2.64248704663212;2;2;2;2;2;2;2;2;2;2;2;2;2;2;2;2;2;2;2;2;2.00787401574803;2.00787401574803;2;2;2;2;2;2;2;2;2;2;2;2;2;2;2;2;2;2;2;2;2;2.00787401574803;2.01581027667984;2.01581027667984;2;2;2;2;2;2;2;2;2;2;2;2;2;2;2;2;2;2;2;2;2.00787401574803;5.3125;13.025641025641;2;2;2;2;2;2;2;2;2;2;2;2;2;2;2;2;2;2;2;2;2;2.00787401574803;2.00790513833992;3.93798449612403;2;2;2;2;2;2;2;2;2;2;2;2;2;2;2;2;2;2;2;2;2.00787401574803;2.00787401574803;2.04016064257028;3.93798449612403;2.36111111111111;2;2;2;2;2;2;2;2;2.01581027667984;2;2;2;2;2;2;2;2;2;2.00787401574803;2.00787401574803;2.40566037735849;14.5142857142857;26.7368421052632;3.29032258064516;2;2;2;2;2;2;2;2;2.03187250996016;2.01581027667984;2;2;2;2;2;2;2;2;2.00787401574803;2.84916201117318;23.1818181818182;3.29032258064516;2;2;2;2;2;2;2;2.00787401574803;2.41706161137441;2.41706161137441;2.01581027667984;2;2;2;2;2;2;2.25663716814159;3.984375;42.5;6.2962962962963;2.00787401574803;2;2;2;2;2;2;2.18025751072961;4.76635514018692;2.56281407035176;2.09016393442623;2.10743801652893;2.125;2;2;2;2.04;5.20408163265306;21.25;2;2;2.00787401574803;2;2;2.00787401574803;2.00787401574803;2.2972972972973;13.0769230769231;6.14457831325301;2.86516853932584;2.01581027667984;2.2972972972973;2;2.37209302325581;5.73033707865169;4.11290322580645;2.23684210526316;2.00787401574803;2.01581027667984;2;2;2.00787401574803;2.50246305418719;9.62264150943396;3.14814814814815;3.56643356643357;2.67015706806283;2.67015706806283;3.04191616766467;3.29032258064516;4.21487603305785];
x1_step2.ymin = -1;

% Layer 1
b1 = 0.03012836904768269;
IW1_1 = [0.019137608992262349 -0.01443692162317467 0.11292956733270548 0.10016583777742544 0.10457493134512869 -0.002886636468552022 0.046869672987817079 0.057044492483111803 0.066880889511887864 0.035271970930163071 -0.068779739406530024 0.032034786596480243 -0.099159997566007005 -0.023691220471225703 0.051999178584983083 0.11216084157111901 0.086886122811670921 -0.025316049323215673 0.041013825435205611 0.0097317875161897043 0.13554442758792787 0.1406786010367409 0.1081069418814023 -0.022382818382365232 -0.0070973310089470689 -0.040628126115876337 0.067377997618538743 0.05893987533567082 0.042299600551607489 -0.045585783542576502 -0.020003955851602299 -0.11361190411120618 0.064538906938074708 -0.022709940631922335 -0.050381193037511492 0.096404345894019541 0.053690883349711227 0.15471070768905792 -0.017748129038161819 0.083828674489239974 0.074720924291607704 -0.05423526723051899 -0.067389706900232008 -0.080800814086384454 0.059297021107150821 -0.035863843624441158 0.12924020265631078 0.069538688294707079 -0.080108941979769907 -0.12829809895134736 -0.076509027893223974 0.0083470547034485039 -0.018034063134559221 0.03480811113169157 -0.043860249704767124 -0.014083701418296565 0.08043022478491979 0.13505013760281345 0.1210033005891222 -0.09736741159911648 0.01543553985881667 0.037638914654107347 0.021229764170801867 -0.098999474746768734 0.055904978677485007 -0.055964412698635196 -0.049961230533333498 -0.032703692001177342 -0.047697558428312747 -0.047199776418645194 -0.081180229613683222 -0.079240267568912143 -0.055057396776735011 0.0093689773963254678 0.083424888969525643 0.16269771705079566 0.021872942589691559 -0.015853705001523364 0.13025583614193717 0.086048579817314327 0.049214540882870778 -0.0030635042399198759 -0.12486661676318596 -0.11508645855777778 -0.034568598591478997 -0.10514021950576664 -0.0037058159264315403 -0.10558203974204253 -0.070845607201410379 -0.038510425765433731 0.012992111284421059 0.13156782642966316 -0.022085014260530597 0.085245806600887805 -0.0023893822017744047 0.12647758445025609 0.05683468232364107 0.019570222775362453 -0.079210600055848845 -0.243373480500231 -0.00556565171550066 -0.029541454652755234 0.14822569607212532 0.25474622660060825 0.038146694780632186 -0.053626357552939104 0.020026253817079266 0.081393872281689247 0.092192994347217172 -0.043271210177060392 -0.027861369553280658 0.12167871762523957 0.028360094708177064 0.005167737917683355 0.051198430466877484 -0.038497663786283824 -0.073730200376061844 -0.037123661768447704 0.061689398036433821 0.099207629165820641 0.16911956594864377 0.047909588009408741 -0.091960608471746391 -0.086067871310703328 -0.10393011727103248 0.066912654902669205 0.15757933174399769 0.0078395439527928282 0.020628588160043652 0.027030552383477378 -0.072267079841082674 0.05119969272850574 0.078633799265100626 -0.0048053319215409793 0.0030759585450046176 0.046469017837837009 0.1384069084787353 0.067134010275923847 -0.0022800413916728604 0.078215080151588873 0.14288013014746312 0.1251175686955055 0.21097376023406311 0.059078720046979796 0.086337743913057777 -0.075836773835695884 -0.21252089288319806 -0.20272868436302571 -0.049442912110847573 0.10753320476009492 -0.050756299767459483 0.13458737511438754 -0.021304210853496302 0.036977966881670987 -0.054612065726213285 -0.081793338010407501 0.042605608954331069 -0.12533765401347113 0.041955630032319349 0.047912271995610704 -0.090720733551086244 -0.0163909492270078 0.020037703410500686 -0.0013720116079216074 0.09031532958123073 0.23512411321329052 0.14055430996192908 0.0095250062345079278 0.053762585939886386 -0.16937643209329756 -0.073903880962149268 -0.13653701048351541 0.073332193370085383 -0.007149996597745777 0.042178776234380912 -0.10894656602136016 0.030140576516168128 0.10514956174773762 0.051888158327118995 0.091609217386870445 0.027613880123312864 -0.12958450578317574 -0.11760623314185185 -0.068098142192578925 -0.045913819433528527 0.1533820539328076 -0.0070577824565935116 0.072855107425284116 0.10979895148266611 0.096510129234315858 0.090135947853823922 -0.035072351361668495 -0.16193200963371068 -0.0016571439773712866 -0.022219498522770453 -0.054319936407915485 0.070984686035643313 0.0012125968911195417 0.060642082567054625 0.022441141433528045 -0.098069276009096207 -0.023338379022553014 -0.031768860063349502 0.064531087915133289 0.005625261015226115 -0.16351766717295579 -0.042887255381118705 -0.04429525981888105 -0.043013085788544236 0.13726655650065356 0.080151249494376672 0.052585501770074108 -0.0074070492817731965 -0.046656752263361696 -0.21319524209525673 -0.21378317024303434 -0.21301058143134943 -0.26969935548865664 -0.16934298857636984 -0.093655099415031931 -0.10033552189883119 0.086930473022725482 0.14388340218688192 -0.040882338814389518 -0.097155026938643016 -0.13075209726335227 -0.070762713430699287 -0.13018523309727603 -0.06712417982861163 -0.20470947448675686 -0.13159054791189545 -0.062111875399899749 0.041225975075257146 -0.044907366922435486 -0.015750423602667152 0.042784789896563459 0.011250338264366652 -0.072439261006356503 -0.28341689376311857 -0.14831606597963048 -0.20734397264650983 -0.21228416172683334 -0.23415650991627243 -0.15920771640373249 -0.010850168183131934 -0.041109604497813396 -0.056403571670406362 0.064494990614318848 -0.17269163012311178 0.062669377720203701 0.036780823325167404 -0.16138739228793739 -0.13306413275522927 -0.02409718381070456 0.044865135785268691 -0.029269973882624013 -0.060074083469468839 0.053318915458253624 -0.093109281697148064 -0.16953470305665649 -0.13639954537473889 -0.19579960804288937 -0.20086016136220758 -0.20270087775301801 -0.065890963498783345 0.045673370066556931 0.048394050147828598 0.02363098818902036 -0.037136403653754403 0.10390015454594297 -0.035800829301284573 -0.036676568546593583 -0.12831217295910113 -0.0065753639398887596 0.01043177412883434 -0.15516249670880747 -0.057732133418380911 -0.075448853361747503 -0.134011187526523 -0.039024856991218354 0.062721694423836516 -0.10046863542789426 -0.083284278005411702 -0.19628339655206281 -0.21858354699091248 -0.09537585331253895 -0.016993480614357546 0.11317188977731443 0.080037204928226982 0.0072093468889599241 0.10655192218747493 -0.015731041338075034 0.046587074289662307 -0.044187829022985278 -0.12371748790905651 -0.060689973155748797 0.024857325683054599 0.0064944310771937333 0.018826467437886771 0.020370974441894181 -0.043548385740742289 -0.032895399506157386 0.037355886709539959 0.099601347102908716 -0.069428233723849778 -0.061257829730421855 -0.026882493479804852 -0.13542505867593077 -0.0075313795426411676 0.09118734783900391 0.0089679279092816904 0.036662760272442994 0.0079585100849090783 0.16685224633067275 0.089477584173144192 0.11234000002869482 -0.04677195469710322 -0.116790160782589 -0.028301958393442395 -0.074356003323890529 0.07049584063324249 0.060027576563154009 0.037876311330217238 0.018956357687236147 -0.011731244878329066 -0.041179803163148156 0.02156664986285841 -0.069153715188981765 -0.065242873381797087 -0.13892143034777332 -0.069817418969463765 0.01175492233539217 0.045739368911700794 0.16690511682680881 0.14903615280443983 0.10427730540527737 -0.019772767955206043 0.0287707139012532 0.24084035496620668 -0.021040627831129158 -0.0022917959901033657 0.051818165153726378 -0.12290920525108255 -0.099347415939016859 -0.065837378608566907 0.042511112537370728 -0.027495190456223395 0.070255445626334401 -0.13723063329063998 -0.11351641926300032 -0.03416498901120435 0.033742058672215559 -0.042446024047579842 -0.21969484693194929 -0.14060595217435515 -0.19857819406493865 0.046860394595495791 0.2142788906933065 0.085332483010114243 0.084833321963148328 0.016797248154706471 -0.099874630477845269 -0.028230292840624047 -0.038645629949668435 -0.080763659245955383 0.031942063687202996 0.055263639222826719 0.047978181583412285 -0.028775501020410214 -0.10945483053739057 0.037780428974281223 -0.037192068022394727 0.14016352802268173 0.051312926772595496 0.062028159620769421 0.0053361561191142444 -0.16365563555055773 -0.22077695219486315 -0.052655126613466489 0.060213482695041183 0.09024484850410798 0.1245611631826745 0.085196751041303059 0.10499313751071311 0.12709757561113863 -0.029120020250265805 0.040174361267952097 -0.15276565930745523 -0.069716261596956056 -0.041007934673758142 -0.1499844068871744 0.020763908764994312 -0.017375135190505809 -0.020048094286663924 0.051570537751539525 0.047958798449073137 0.1158284996437707 0.0387401116907145 0.10111624156304946 0.16799304664137529 -0.087392050517947115 -0.20316589774460189 -0.1407555517313307 -0.010161077979125818 0.1406813140625997 0.07085078367822098 -0.0034175274334081324 0.059359451034197722 0.21112780034660378 0.25204804606165199 0.080805823264027674 -0.080176506505924228 -0.1226415015583435 0.025574472069962977 -0.03159445715662576 0.0772570430492618 -0.14150576521804734 -0.055143810006738861 -0.063158129707129834 0.14759803420544046 0.13232776825703671 0.14852181888131583 0.027524426871754874 0.018301820563720143 -0.0033979252337834678 -0.09808128882352346 -0.048383078613559005 -0.066418670065912816 0.061189029808700578 0.086230064150190966 0.063127766548632017 0.021141100254962283 0.023256847745865825 0.073602157948292002 -0.0022102681553640311 -0.13575998604740142 -0.12439400423503662 0.02349334235450036 -0.083575279665006094 -0.018808991744987014 0.15486467473365856 0.17530622962234177 0.13972547524733928 0.098782893283373072 0.040733845842209869 -0.074265380048521457 0.0035941654693459751 0.07652362081332327 -0.097731727566846074 -0.00077900935229284875 -0.01358715578846011 -0.016930200245843331 -0.047130637964232946 0.037815673406940947 0.1182005950307783 -0.09446843867937281 -0.014056660961557922 -0.11616625208668291 0.13221537022883437 0.11355470494029632 0.060583761680133373 0.12926381938441833 0.022466343245415021 0.036334011884996881 -0.067438061981709693 -0.1263613147414602 -0.0096099365694523684 0.063154391942270349 -0.13054777573002008 -0.081566647835072878 0.0048748995617351448 -0.10141952903286967 0.05669245618921312 0.031008631262091066 0.0019858474488492514 -0.087756506679707316 -0.021110097096229779 -0.014629812961575469 0.14027528491894872 0.048476440533617458 0.072497414787200579 0.010724290076564726 -0.060322182345216607 0.047513495420633906 -0.055199819210461257 -0.093193514671119998 -0.059739506790463789 0.016116284510142111];

% Layer 2
b2 = -0.30002921168309854;
LW2_1 = 4.8083981591072806;

% ===== SIMULATION ========

% Dimensions
Q = size(x1,2); % samples

% Input 1
xp1 = removeconstantrows_apply(x1,x1_step1);
xp1 = mapminmax_apply(xp1,x1_step2);

% Layer 1
a1 = tansig_apply(repmat(b1,1,Q) + IW1_1*xp1);

% Layer 2
a2 = logsig_apply(repmat(b2,1,Q) + LW2_1*a1);

% Output 1
y1 = a2;
end

% ===== MODULE FUNCTIONS ========

% Map Minimum and Maximum Input Processing Function
function y = mapminmax_apply(x,settings)
y = bsxfun(@minus,x,settings.xoffset);
y = bsxfun(@times,y,settings.gain);
y = bsxfun(@plus,y,settings.ymin);
end

% Remove Constants Input Processing Function
function y = removeconstantrows_apply(x,settings)
y = x(settings.keep,:);
end

% Sigmoid Positive Transfer Function
function a = logsig_apply(n,~)
a = 1 ./ (1 + exp(-n));
end

% Sigmoid Symmetric Transfer Function
function a = tansig_apply(n,~)
a = 2 ./ (1 + exp(-2*n)) - 1;
end
